digraph Tree {
node [shape=box, style="filled, rounded", color="black", fontname="helvetica"] ;
edge [fontname="helvetica"] ;
0 [label="arrival_month <= 11.5\ngini = 0.5\nsamples = 21643\nvalue = [16981, 17165]\nclass = sim", fillcolor="#fdfeff"] ;
1 [label="lead_time <= 151.5\ngini = 0.499\nsamples = 20236\nvalue = [15152, 16785]\nclass = sim", fillcolor="#ecf5fc"] ;
0 -> 1 [labeldistance=2.5, labelangle=45, headlabel="True"] ;
2 [label="market_segment_type <= 3.002\ngini = 0.483\nsamples = 14892\nvalue = [13911, 9614]\nclass = não", fillcolor="#f7d8c2"] ;
1 -> 2 ;
3 [label="lead_time <= 90.5\ngini = 0.356\nsamples = 4296\nvalue = [5220, 1570]\nclass = não", fillcolor="#eda775"] ;
2 -> 3 ;
4 [label="avg_price_per_room <= 197.0\ngini = 0.238\nsamples = 3203\nvalue = [4304, 691]\nclass = não", fillcolor="#e99559"] ;
3 -> 4 ;
5 [label="lead_time <= 63.5\ngini = 0.231\nsamples = 3182\nvalue = [4303, 660]\nclass = não", fillcolor="#e99457"] ;
4 -> 5 ;
6 [label="market_segment_type <= 2.996\ngini = 0.183\nsamples = 2546\nvalue = [3559, 403]\nclass = não", fillcolor="#e88f4f"] ;
5 -> 6 ;
7 [label="no_of_week_nights <= 7.5\ngini = 0.275\nsamples = 956\nvalue = [1266, 250]\nclass = não", fillcolor="#ea9a60"] ;
6 -> 7 ;
8 [label="no_of_special_requests <= 0.5\ngini = 0.255\nsamples = 941\nvalue = [1266, 224]\nclass = não", fillcolor="#ea975c"] ;
7 -> 8 ;
9 [label="arrival_day <= 12.5\ngini = 0.302\nsamples = 742\nvalue = [966, 220]\nclass = não", fillcolor="#eb9e66"] ;
8 -> 9 ;
10 [label="market_segment_type <= 2.009\ngini = 0.217\nsamples = 274\nvalue = [381, 54]\nclass = não", fillcolor="#e99355"] ;
9 -> 10 ;
11 [label="arrival_month <= 6.5\ngini = 0.168\nsamples = 262\nvalue = [381, 39]\nclass = não", fillcolor="#e88e4d"] ;
10 -> 11 ;
12 [label="arrival_month <= 2.5\ngini = 0.073\nsamples = 94\nvalue = [153, 6]\nclass = não", fillcolor="#e68641"] ;
11 -> 12 ;
13 [label="gini = 0.0\nsamples = 33\nvalue = [55, 0]\nclass = não", fillcolor="#e58139"] ;
12 -> 13 ;
14 [label="no_of_week_nights <= 0.5\ngini = 0.109\nsamples = 61\nvalue = [98, 6]\nclass = não", fillcolor="#e78945"] ;
12 -> 14 ;
15 [label="arrival_day <= 6.0\ngini = 0.444\nsamples = 3\nvalue = [2, 1]\nclass = não", fillcolor="#f2c09c"] ;
14 -> 15 ;
16 [label="gini = 0.0\nsamples = 2\nvalue = [2, 0]\nclass = não", fillcolor="#e58139"] ;
15 -> 16 ;
17 [label="gini = 0.0\nsamples = 1\nvalue = [0, 1]\nclass = sim", fillcolor="#399de5"] ;
15 -> 17 ;
18 [label="lead_time <= 3.5\ngini = 0.094\nsamples = 58\nvalue = [96, 5]\nclass = não", fillcolor="#e68843"] ;
14 -> 18 ;
19 [label="no_of_week_nights <= 1.5\ngini = 0.169\nsamples = 28\nvalue = [39, 4]\nclass = não", fillcolor="#e88e4d"] ;
18 -> 19 ;
20 [label="market_segment_type <= 1.5\ngini = 0.062\nsamples = 20\nvalue = [30, 1]\nclass = não", fillcolor="#e68540"] ;
19 -> 20 ;
21 [label="gini = 0.0\nsamples = 5\nvalue = [6, 0]\nclass = não", fillcolor="#e58139"] ;
20 -> 21 ;
22 [label="avg_price_per_room <= 66.724\ngini = 0.077\nsamples = 15\nvalue = [24, 1]\nclass = não", fillcolor="#e68641"] ;
20 -> 22 ;
23 [label="avg_price_per_room <= 65.724\ngini = 0.245\nsamples = 5\nvalue = [6, 1]\nclass = não", fillcolor="#e9965a"] ;
22 -> 23 ;
24 [label="gini = 0.0\nsamples = 4\nvalue = [6, 0]\nclass = não", fillcolor="#e58139"] ;
23 -> 24 ;
25 [label="gini = 0.0\nsamples = 1\nvalue = [0, 1]\nclass = sim", fillcolor="#399de5"] ;
23 -> 25 ;
26 [label="gini = 0.0\nsamples = 10\nvalue = [18, 0]\nclass = não", fillcolor="#e58139"] ;
22 -> 26 ;
27 [label="arrival_day <= 6.5\ngini = 0.375\nsamples = 8\nvalue = [9, 3]\nclass = não", fillcolor="#eeab7b"] ;
19 -> 27 ;
28 [label="no_of_week_nights <= 2.5\ngini = 0.245\nsamples = 5\nvalue = [6, 1]\nclass = não", fillcolor="#e9965a"] ;
27 -> 28 ;
29 [label="arrival_day <= 3.0\ngini = 0.444\nsamples = 3\nvalue = [2, 1]\nclass = não", fillcolor="#f2c09c"] ;
28 -> 29 ;
30 [label="gini = 0.0\nsamples = 1\nvalue = [0, 1]\nclass = sim", fillcolor="#399de5"] ;
29 -> 30 ;
31 [label="gini = 0.0\nsamples = 2\nvalue = [2, 0]\nclass = não", fillcolor="#e58139"] ;
29 -> 31 ;
32 [label="gini = 0.0\nsamples = 2\nvalue = [4, 0]\nclass = não", fillcolor="#e58139"] ;
28 -> 32 ;
33 [label="no_of_week_nights <= 2.5\ngini = 0.48\nsamples = 3\nvalue = [3, 2]\nclass = não", fillcolor="#f6d5bd"] ;
27 -> 33 ;
34 [label="gini = 0.0\nsamples = 1\nvalue = [0, 1]\nclass = sim", fillcolor="#399de5"] ;
33 -> 34 ;
35 [label="arrival_day <= 7.5\ngini = 0.375\nsamples = 2\nvalue = [3, 1]\nclass = não", fillcolor="#eeab7b"] ;
33 -> 35 ;
36 [label="gini = 0.0\nsamples = 1\nvalue = [0, 1]\nclass = sim", fillcolor="#399de5"] ;
35 -> 36 ;
37 [label="gini = 0.0\nsamples = 1\nvalue = [3, 0]\nclass = não", fillcolor="#e58139"] ;
35 -> 37 ;
38 [label="avg_price_per_room <= 55.5\ngini = 0.034\nsamples = 30\nvalue = [57, 1]\nclass = não", fillcolor="#e5833c"] ;
18 -> 38 ;
39 [label="avg_price_per_room <= 30.5\ngini = 0.444\nsamples = 2\nvalue = [2, 1]\nclass = não", fillcolor="#f2c09c"] ;
38 -> 39 ;
40 [label="gini = 0.0\nsamples = 1\nvalue = [2, 0]\nclass = não", fillcolor="#e58139"] ;
39 -> 40 ;
41 [label="gini = 0.0\nsamples = 1\nvalue = [0, 1]\nclass = sim", fillcolor="#399de5"] ;
39 -> 41 ;
42 [label="gini = 0.0\nsamples = 28\nvalue = [55, 0]\nclass = não", fillcolor="#e58139"] ;
38 -> 42 ;
43 [label="arrival_month <= 9.5\ngini = 0.221\nsamples = 168\nvalue = [228, 33]\nclass = não", fillcolor="#e99356"] ;
11 -> 43 ;
44 [label="market_segment_type <= 0.5\ngini = 0.285\nsamples = 81\nvalue = [101, 21]\nclass = não", fillcolor="#ea9b62"] ;
43 -> 44 ;
45 [label="no_of_week_nights <= 2.0\ngini = 0.444\nsamples = 4\nvalue = [2, 4]\nclass = sim", fillcolor="#9ccef2"] ;
44 -> 45 ;
46 [label="gini = 0.0\nsamples = 2\nvalue = [0, 4]\nclass = sim", fillcolor="#399de5"] ;
45 -> 46 ;
47 [label="gini = 0.0\nsamples = 2\nvalue = [2, 0]\nclass = não", fillcolor="#e58139"] ;
45 -> 47 ;
48 [label="market_segment_type <= 1.5\ngini = 0.25\nsamples = 77\nvalue = [99, 17]\nclass = não", fillcolor="#e9975b"] ;
44 -> 48 ;
49 [label="gini = 0.0\nsamples = 7\nvalue = [12, 0]\nclass = não", fillcolor="#e58139"] ;
48 -> 49 ;
50 [label="avg_price_per_room <= 63.7\ngini = 0.273\nsamples = 70\nvalue = [87, 17]\nclass = não", fillcolor="#ea9a60"] ;
48 -> 50 ;
51 [label="gini = 0.0\nsamples = 3\nvalue = [0, 5]\nclass = sim", fillcolor="#399de5"] ;
50 -> 51 ;
52 [label="no_of_week_nights <= 0.5\ngini = 0.213\nsamples = 67\nvalue = [87, 12]\nclass = não", fillcolor="#e99254"] ;
50 -> 52 ;
53 [label="avg_price_per_room <= 66.75\ngini = 0.444\nsamples = 8\nvalue = [8, 4]\nclass = não", fillcolor="#f2c09c"] ;
52 -> 53 ;
54 [label="arrival_day <= 9.5\ngini = 0.32\nsamples = 4\nvalue = [1, 4]\nclass = sim", fillcolor="#6ab6ec"] ;
53 -> 54 ;
55 [label="gini = 0.0\nsamples = 2\nvalue = [0, 2]\nclass = sim", fillcolor="#399de5"] ;
54 -> 55 ;
56 [label="arrival_month <= 8.0\ngini = 0.444\nsamples = 2\nvalue = [1, 2]\nclass = sim", fillcolor="#9ccef2"] ;
54 -> 56 ;
57 [label="gini = 0.0\nsamples = 1\nvalue = [1, 0]\nclass = não", fillcolor="#e58139"] ;
56 -> 57 ;
58 [label="gini = 0.0\nsamples = 1\nvalue = [0, 2]\nclass = sim", fillcolor="#399de5"] ;
56 -> 58 ;
59 [label="gini = 0.0\nsamples = 4\nvalue = [7, 0]\nclass = não", fillcolor="#e58139"] ;
53 -> 59 ;
60 [label="lead_time <= 45.5\ngini = 0.167\nsamples = 59\nvalue = [79, 8]\nclass = não", fillcolor="#e88e4d"] ;
52 -> 60 ;
61 [label="arrival_day <= 4.5\ngini = 0.1\nsamples = 51\nvalue = [72, 4]\nclass = não", fillcolor="#e68844"] ;
60 -> 61 ;
62 [label="avg_price_per_room <= 66.0\ngini = 0.278\nsamples = 13\nvalue = [15, 3]\nclass = não", fillcolor="#ea9a61"] ;
61 -> 62 ;
63 [label="arrival_day <= 3.5\ngini = 0.444\nsamples = 6\nvalue = [6, 3]\nclass = não", fillcolor="#f2c09c"] ;
62 -> 63 ;
64 [label="gini = 0.0\nsamples = 5\nvalue = [6, 0]\nclass = não", fillcolor="#e58139"] ;
63 -> 64 ;
65 [label="gini = 0.0\nsamples = 1\nvalue = [0, 3]\nclass = sim", fillcolor="#399de5"] ;
63 -> 65 ;
66 [label="gini = 0.0\nsamples = 7\nvalue = [9, 0]\nclass = não", fillcolor="#e58139"] ;
62 -> 66 ;
67 [label="avg_price_per_room <= 68.5\ngini = 0.034\nsamples = 38\nvalue = [57, 1]\nclass = não", fillcolor="#e5833c"] ;
61 -> 67 ;
68 [label="gini = 0.0\nsamples = 19\nvalue = [29, 0]\nclass = não", fillcolor="#e58139"] ;
67 -> 68 ;
69 [label="lead_time <= 1.5\ngini = 0.067\nsamples = 19\nvalue = [28, 1]\nclass = não", fillcolor="#e68640"] ;
67 -> 69 ;
70 [label="arrival_day <= 10.0\ngini = 0.198\nsamples = 7\nvalue = [8, 1]\nclass = não", fillcolor="#e89152"] ;
69 -> 70 ;
71 [label="gini = 0.0\nsamples = 6\nvalue = [8, 0]\nclass = não", fillcolor="#e58139"] ;
70 -> 71 ;
72 [label="gini = 0.0\nsamples = 1\nvalue = [0, 1]\nclass = sim", fillcolor="#399de5"] ;
70 -> 72 ;
73 [label="gini = 0.0\nsamples = 12\nvalue = [20, 0]\nclass = não", fillcolor="#e58139"] ;
69 -> 73 ;
74 [label="gini = 0.463\nsamples = 8\nvalue = [7, 4]\nclass = não", fillcolor="#f4c9aa"] ;
60 -> 74 ;
75 [label="arrival_day <= 8.5\ngini = 0.158\nsamples = 87\nvalue = [127, 12]\nclass = não", fillcolor="#e78d4c"] ;
43 -> 75 ;
76 [label="no_of_week_nights <= 1.5\ngini = 0.239\nsamples = 42\nvalue = [56, 9]\nclass = não", fillcolor="#e99559"] ;
75 -> 76 ;
77 [label="arrival_day <= 7.5\ngini = 0.153\nsamples = 31\nvalue = [44, 4]\nclass = não", fillcolor="#e78c4b"] ;
76 -> 77 ;
78 [label="arrival_month <= 10.5\ngini = 0.051\nsamples = 24\nvalue = [37, 1]\nclass = não", fillcolor="#e6843e"] ;
77 -> 78 ;
79 [label="avg_price_per_room <= 132.815\ngini = 0.067\nsamples = 18\nvalue = [28, 1]\nclass = não", fillcolor="#e68640"] ;
78 -> 79 ;
80 [label="gini = 0.0\nsamples = 17\nvalue = [28, 0]\nclass = não", fillcolor="#e58139"] ;
79 -> 80 ;
81 [label="gini = 0.0\nsamples = 1\nvalue = [0, 1]\nclass = sim", fillcolor="#399de5"] ;
79 -> 81 ;
82 [label="gini = 0.0\nsamples = 6\nvalue = [9, 0]\nclass = não", fillcolor="#e58139"] ;
78 -> 82 ;
83 [label="avg_price_per_room <= 79.5\ngini = 0.42\nsamples = 7\nvalue = [7, 3]\nclass = não", fillcolor="#f0b78e"] ;
77 -> 83 ;
84 [label="lead_time <= 4.0\ngini = 0.375\nsamples = 3\nvalue = [1, 3]\nclass = sim", fillcolor="#7bbeee"] ;
83 -> 84 ;
85 [label="gini = 0.0\nsamples = 2\nvalue = [0, 3]\nclass = sim", fillcolor="#399de5"] ;
84 -> 85 ;
86 [label="gini = 0.0\nsamples = 1\nvalue = [1, 0]\nclass = não", fillcolor="#e58139"] ;
84 -> 86 ;
87 [label="gini = 0.0\nsamples = 4\nvalue = [6, 0]\nclass = não", fillcolor="#e58139"] ;
83 -> 87 ;
88 [label="market_segment_type <= 1.266\ngini = 0.415\nsamples = 11\nvalue = [12, 5]\nclass = não", fillcolor="#f0b58b"] ;
76 -> 88 ;
89 [label="arrival_day <= 5.5\ngini = 0.245\nsamples = 4\nvalue = [6, 1]\nclass = não", fillcolor="#e9965a"] ;
88 -> 89 ;
90 [label="gini = 0.0\nsamples = 2\nvalue = [5, 0]\nclass = não", fillcolor="#e58139"] ;
89 -> 90 ;
91 [label="arrival_day <= 7.5\ngini = 0.5\nsamples = 2\nvalue = [1, 1]\nclass = não", fillcolor="#ffffff"] ;
89 -> 91 ;
92 [label="gini = 0.0\nsamples = 1\nvalue = [0, 1]\nclass = sim", fillcolor="#399de5"] ;
91 -> 92 ;
93 [label="gini = 0.0\nsamples = 1\nvalue = [1, 0]\nclass = não", fillcolor="#e58139"] ;
91 -> 93 ;
94 [label="arrival_day <= 4.0\ngini = 0.48\nsamples = 7\nvalue = [6, 4]\nclass = não", fillcolor="#f6d5bd"] ;
88 -> 94 ;
95 [label="market_segment_type <= 1.766\ngini = 0.375\nsamples = 2\nvalue = [1, 3]\nclass = sim", fillcolor="#7bbeee"] ;
94 -> 95 ;
96 [label="gini = 0.0\nsamples = 1\nvalue = [0, 3]\nclass = sim", fillcolor="#399de5"] ;
95 -> 96 ;
97 [label="gini = 0.0\nsamples = 1\nvalue = [1, 0]\nclass = não", fillcolor="#e58139"] ;
95 -> 97 ;
98 [label="avg_price_per_room <= 163.625\ngini = 0.278\nsamples = 5\nvalue = [5, 1]\nclass = não", fillcolor="#ea9a61"] ;
94 -> 98 ;
99 [label="gini = 0.0\nsamples = 3\nvalue = [4, 0]\nclass = não", fillcolor="#e58139"] ;
98 -> 99 ;
100 [label="lead_time <= 13.5\ngini = 0.5\nsamples = 2\nvalue = [1, 1]\nclass = não", fillcolor="#ffffff"] ;
98 -> 100 ;
101 [label="gini = 0.0\nsamples = 1\nvalue = [1, 0]\nclass = não", fillcolor="#e58139"] ;
100 -> 101 ;
102 [label="gini = 0.0\nsamples = 1\nvalue = [0, 1]\nclass = sim", fillcolor="#399de5"] ;
100 -> 102 ;
103 [label="lead_time <= 3.5\ngini = 0.078\nsamples = 45\nvalue = [71, 3]\nclass = não", fillcolor="#e68641"] ;
75 -> 103 ;
104 [label="arrival_day <= 9.5\ngini = 0.165\nsamples = 15\nvalue = [20, 2]\nclass = não", fillcolor="#e88e4d"] ;
103 -> 104 ;
105 [label="gini = 0.0\nsamples = 3\nvalue = [6, 0]\nclass = não", fillcolor="#e58139"] ;
104 -> 105 ;
106 [label="market_segment_type <= 0.5\ngini = 0.219\nsamples = 12\nvalue = [14, 2]\nclass = não", fillcolor="#e99355"] ;
104 -> 106 ;
107 [label="gini = 0.444\nsamples = 2\nvalue = [2, 1]\nclass = não", fillcolor="#f2c09c"] ;
106 -> 107 ;
108 [label="no_of_week_nights <= 0.5\ngini = 0.142\nsamples = 10\nvalue = [12, 1]\nclass = não", fillcolor="#e78c49"] ;
106 -> 108 ;
109 [label="lead_time <= 1.5\ngini = 0.32\nsamples = 4\nvalue = [4, 1]\nclass = não", fillcolor="#eca06a"] ;
108 -> 109 ;
110 [label="gini = 0.0\nsamples = 3\nvalue = [4, 0]\nclass = não", fillcolor="#e58139"] ;
109 -> 110 ;
111 [label="gini = 0.0\nsamples = 1\nvalue = [0, 1]\nclass = sim", fillcolor="#399de5"] ;
109 -> 111 ;
112 [label="gini = 0.0\nsamples = 6\nvalue = [8, 0]\nclass = não", fillcolor="#e58139"] ;
108 -> 112 ;
113 [label="lead_time <= 14.5\ngini = 0.038\nsamples = 30\nvalue = [51, 1]\nclass = não", fillcolor="#e6833d"] ;
103 -> 113 ;
114 [label="gini = 0.0\nsamples = 22\nvalue = [41, 0]\nclass = não", fillcolor="#e58139"] ;
113 -> 114 ;
115 [label="avg_price_per_room <= 80.0\ngini = 0.165\nsamples = 8\nvalue = [10, 1]\nclass = não", fillcolor="#e88e4d"] ;
113 -> 115 ;
116 [label="arrival_day <= 11.5\ngini = 0.219\nsamples = 6\nvalue = [7, 1]\nclass = não", fillcolor="#e99355"] ;
115 -> 116 ;
117 [label="gini = 0.0\nsamples = 5\nvalue = [7, 0]\nclass = não", fillcolor="#e58139"] ;
116 -> 117 ;
118 [label="gini = 0.0\nsamples = 1\nvalue = [0, 1]\nclass = sim", fillcolor="#399de5"] ;
116 -> 118 ;
119 [label="gini = 0.0\nsamples = 2\nvalue = [3, 0]\nclass = não", fillcolor="#e58139"] ;
115 -> 119 ;
120 [label="gini = 0.0\nsamples = 12\nvalue = [0, 15]\nclass = sim", fillcolor="#399de5"] ;
10 -> 120 ;
121 [label="no_of_week_nights <= 1.5\ngini = 0.344\nsamples = 468\nvalue = [585, 166]\nclass = não", fillcolor="#eca571"] ;
9 -> 121 ;
122 [label="market_segment_type <= 2.055\ngini = 0.266\nsamples = 310\nvalue = [416, 78]\nclass = não", fillcolor="#ea995e"] ;
121 -> 122 ;
123 [label="market_segment_type <= 0.752\ngini = 0.206\nsamples = 297\nvalue = [416, 55]\nclass = não", fillcolor="#e89253"] ;
122 -> 123 ;
124 [label="arrival_month <= 9.5\ngini = 0.455\nsamples = 14\nvalue = [13, 7]\nclass = não", fillcolor="#f3c5a4"] ;
123 -> 124 ;
125 [label="market_segment_type <= 0.211\ngini = 0.408\nsamples = 7\nvalue = [2, 5]\nclass = sim", fillcolor="#88c4ef"] ;
124 -> 125 ;
126 [label="arrival_month <= 7.0\ngini = 0.48\nsamples = 5\nvalue = [2, 3]\nclass = sim", fillcolor="#bddef6"] ;
125 -> 126 ;
127 [label="lead_time <= 5.5\ngini = 0.5\nsamples = 4\nvalue = [2, 2]\nclass = não", fillcolor="#ffffff"] ;
126 -> 127 ;
128 [label="gini = 0.0\nsamples = 1\nvalue = [0, 1]\nclass = sim", fillcolor="#399de5"] ;
127 -> 128 ;
129 [label="lead_time <= 14.5\ngini = 0.444\nsamples = 3\nvalue = [2, 1]\nclass = não", fillcolor="#f2c09c"] ;
127 -> 129 ;
130 [label="gini = 0.0\nsamples = 1\nvalue = [1, 0]\nclass = não", fillcolor="#e58139"] ;
129 -> 130 ;
131 [label="gini = 0.5\nsamples = 2\nvalue = [1, 1]\nclass = não", fillcolor="#ffffff"] ;
129 -> 131 ;
132 [label="gini = 0.0\nsamples = 1\nvalue = [0, 1]\nclass = sim", fillcolor="#399de5"] ;
126 -> 132 ;
133 [label="gini = 0.0\nsamples = 2\nvalue = [0, 2]\nclass = sim", fillcolor="#399de5"] ;
125 -> 133 ;
134 [label="arrival_day <= 20.0\ngini = 0.26\nsamples = 7\nvalue = [11, 2]\nclass = não", fillcolor="#ea985d"] ;
124 -> 134 ;
135 [label="gini = 0.0\nsamples = 1\nvalue = [0, 1]\nclass = sim", fillcolor="#399de5"] ;
134 -> 135 ;
136 [label="avg_price_per_room <= 104.5\ngini = 0.153\nsamples = 6\nvalue = [11, 1]\nclass = não", fillcolor="#e78c4b"] ;
134 -> 136 ;
137 [label="gini = 0.0\nsamples = 4\nvalue = [9, 0]\nclass = não", fillcolor="#e58139"] ;
136 -> 137 ;
138 [label="no_of_week_nights <= 0.5\ngini = 0.444\nsamples = 2\nvalue = [2, 1]\nclass = não", fillcolor="#f2c09c"] ;
136 -> 138 ;
139 [label="gini = 0.0\nsamples = 1\nvalue = [2, 0]\nclass = não", fillcolor="#e58139"] ;
138 -> 139 ;
140 [label="gini = 0.0\nsamples = 1\nvalue = [0, 1]\nclass = sim", fillcolor="#399de5"] ;
138 -> 140 ;
141 [label="arrival_month <= 5.5\ngini = 0.19\nsamples = 283\nvalue = [403, 48]\nclass = não", fillcolor="#e89051"] ;
123 -> 141 ;
142 [label="arrival_month <= 3.5\ngini = 0.25\nsamples = 129\nvalue = [186, 32]\nclass = não", fillcolor="#e9975b"] ;
141 -> 142 ;
143 [label="avg_price_per_room <= 63.0\ngini = 0.214\nsamples = 96\nvalue = [137, 19]\nclass = não", fillcolor="#e99254"] ;
142 -> 143 ;
144 [label="avg_price_per_room <= 60.5\ngini = 0.432\nsamples = 12\nvalue = [13, 6]\nclass = não", fillcolor="#f1bb94"] ;
143 -> 144 ;
145 [label="gini = 0.0\nsamples = 7\nvalue = [13, 0]\nclass = não", fillcolor="#e58139"] ;
144 -> 145 ;
146 [label="gini = 0.0\nsamples = 5\nvalue = [0, 6]\nclass = sim", fillcolor="#399de5"] ;
144 -> 146 ;
147 [label="arrival_month <= 1.5\ngini = 0.172\nsamples = 84\nvalue = [124, 13]\nclass = não", fillcolor="#e88e4e"] ;
143 -> 147 ;
148 [label="gini = 0.0\nsamples = 19\nvalue = [35, 0]\nclass = não", fillcolor="#e58139"] ;
147 -> 148 ;
149 [label="lead_time <= 2.5\ngini = 0.222\nsamples = 65\nvalue = [89, 13]\nclass = não", fillcolor="#e99356"] ;
147 -> 149 ;
150 [label="gini = 0.0\nsamples = 14\nvalue = [21, 0]\nclass = não", fillcolor="#e58139"] ;
149 -> 150 ;
151 [label="no_of_week_nights <= 0.5\ngini = 0.269\nsamples = 51\nvalue = [68, 13]\nclass = não", fillcolor="#ea995f"] ;
149 -> 151 ;
152 [label="lead_time <= 13.0\ngini = 0.32\nsamples = 3\nvalue = [4, 1]\nclass = não", fillcolor="#eca06a"] ;
151 -> 152 ;
153 [label="gini = 0.0\nsamples = 1\nvalue = [2, 0]\nclass = não", fillcolor="#e58139"] ;
152 -> 153 ;
154 [label="arrival_day <= 18.5\ngini = 0.444\nsamples = 2\nvalue = [2, 1]\nclass = não", fillcolor="#f2c09c"] ;
152 -> 154 ;
155 [label="gini = 0.0\nsamples = 1\nvalue = [2, 0]\nclass = não", fillcolor="#e58139"] ;
154 -> 155 ;
156 [label="gini = 0.0\nsamples = 1\nvalue = [0, 1]\nclass = sim", fillcolor="#399de5"] ;
154 -> 156 ;
157 [label="avg_price_per_room <= 80.967\ngini = 0.266\nsamples = 48\nvalue = [64, 12]\nclass = não", fillcolor="#ea995e"] ;
151 -> 157 ;
158 [label="arrival_month <= 2.5\ngini = 0.43\nsamples = 21\nvalue = [22, 10]\nclass = não", fillcolor="#f1ba93"] ;
157 -> 158 ;
159 [label="avg_price_per_room <= 74.0\ngini = 0.48\nsamples = 16\nvalue = [15, 10]\nclass = não", fillcolor="#f6d5bd"] ;
158 -> 159 ;
160 [label="lead_time <= 17.0\ngini = 0.133\nsamples = 8\nvalue = [13, 1]\nclass = não", fillcolor="#e78b48"] ;
159 -> 160 ;
161 [label="gini = 0.0\nsamples = 5\nvalue = [7, 0]\nclass = não", fillcolor="#e58139"] ;
160 -> 161 ;
162 [label="arrival_day <= 24.0\ngini = 0.245\nsamples = 3\nvalue = [6, 1]\nclass = não", fillcolor="#e9965a"] ;
160 -> 162 ;
163 [label="gini = 0.0\nsamples = 2\nvalue = [6, 0]\nclass = não", fillcolor="#e58139"] ;
162 -> 163 ;
164 [label="gini = 0.0\nsamples = 1\nvalue = [0, 1]\nclass = sim", fillcolor="#399de5"] ;
162 -> 164 ;
165 [label="arrival_day <= 22.0\ngini = 0.298\nsamples = 8\nvalue = [2, 9]\nclass = sim", fillcolor="#65b3eb"] ;
159 -> 165 ;
166 [label="lead_time <= 7.5\ngini = 0.346\nsamples = 7\nvalue = [2, 7]\nclass = sim", fillcolor="#72b9ec"] ;
165 -> 166 ;
167 [label="gini = 0.0\nsamples = 5\nvalue = [0, 7]\nclass = sim", fillcolor="#399de5"] ;
166 -> 167 ;
168 [label="gini = 0.0\nsamples = 2\nvalue = [2, 0]\nclass = não", fillcolor="#e58139"] ;
166 -> 168 ;
169 [label="gini = 0.0\nsamples = 1\nvalue = [0, 2]\nclass = sim", fillcolor="#399de5"] ;
165 -> 169 ;
170 [label="gini = 0.0\nsamples = 5\nvalue = [7, 0]\nclass = não", fillcolor="#e58139"] ;
158 -> 170 ;
171 [label="lead_time <= 11.5\ngini = 0.087\nsamples = 27\nvalue = [42, 2]\nclass = não", fillcolor="#e68742"] ;
157 -> 171 ;
172 [label="lead_time <= 6.0\ngini = 0.165\nsamples = 11\nvalue = [20, 2]\nclass = não", fillcolor="#e88e4d"] ;
171 -> 172 ;
173 [label="gini = 0.0\nsamples = 5\nvalue = [10, 0]\nclass = não", fillcolor="#e58139"] ;
172 -> 173 ;
174 [label="avg_price_per_room <= 86.0\ngini = 0.278\nsamples = 6\nvalue = [10, 2]\nclass = não", fillcolor="#ea9a61"] ;
172 -> 174 ;
175 [label="gini = 0.346\nsamples = 5\nvalue = [7, 2]\nclass = não", fillcolor="#eca572"] ;
174 -> 175 ;
176 [label="gini = 0.0\nsamples = 1\nvalue = [3, 0]\nclass = não", fillcolor="#e58139"] ;
174 -> 176 ;
177 [label="gini = 0.0\nsamples = 16\nvalue = [22, 0]\nclass = não", fillcolor="#e58139"] ;
171 -> 177 ;
178 [label="arrival_day <= 19.5\ngini = 0.331\nsamples = 33\nvalue = [49, 13]\nclass = não", fillcolor="#eca26e"] ;
142 -> 178 ;
179 [label="market_segment_type <= 1.552\ngini = 0.091\nsamples = 13\nvalue = [20, 1]\nclass = não", fillcolor="#e68743"] ;
178 -> 179 ;
180 [label="arrival_day <= 13.5\ngini = 0.5\nsamples = 2\nvalue = [1, 1]\nclass = não", fillcolor="#ffffff"] ;
179 -> 180 ;
181 [label="gini = 0.0\nsamples = 1\nvalue = [0, 1]\nclass = sim", fillcolor="#399de5"] ;
180 -> 181 ;
182 [label="gini = 0.0\nsamples = 1\nvalue = [1, 0]\nclass = não", fillcolor="#e58139"] ;
180 -> 182 ;
183 [label="gini = 0.0\nsamples = 11\nvalue = [19, 0]\nclass = não", fillcolor="#e58139"] ;
179 -> 183 ;
184 [label="arrival_day <= 23.5\ngini = 0.414\nsamples = 20\nvalue = [29, 12]\nclass = não", fillcolor="#f0b58b"] ;
178 -> 184 ;
185 [label="no_of_week_nights <= 0.5\ngini = 0.494\nsamples = 14\nvalue = [15, 12]\nclass = não", fillcolor="#fae6d7"] ;
184 -> 185 ;
186 [label="arrival_month <= 4.5\ngini = 0.444\nsamples = 4\nvalue = [4, 2]\nclass = não", fillcolor="#f2c09c"] ;
185 -> 186 ;
187 [label="gini = 0.0\nsamples = 1\nvalue = [0, 2]\nclass = sim", fillcolor="#399de5"] ;
186 -> 187 ;
188 [label="gini = 0.0\nsamples = 3\nvalue = [4, 0]\nclass = não", fillcolor="#e58139"] ;
186 -> 188 ;
189 [label="arrival_month <= 4.5\ngini = 0.499\nsamples = 10\nvalue = [11, 10]\nclass = não", fillcolor="#fdf4ed"] ;
185 -> 189 ;
190 [label="avg_price_per_room <= 98.5\ngini = 0.426\nsamples = 7\nvalue = [9, 4]\nclass = não", fillcolor="#f1b991"] ;
189 -> 190 ;
191 [label="gini = 0.0\nsamples = 5\nvalue = [8, 0]\nclass = não", fillcolor="#e58139"] ;
190 -> 191 ;
192 [label="avg_price_per_room <= 101.5\ngini = 0.32\nsamples = 2\nvalue = [1, 4]\nclass = sim", fillcolor="#6ab6ec"] ;
190 -> 192 ;
193 [label="gini = 0.0\nsamples = 1\nvalue = [0, 4]\nclass = sim", fillcolor="#399de5"] ;
192 -> 193 ;
194 [label="gini = 0.0\nsamples = 1\nvalue = [1, 0]\nclass = não", fillcolor="#e58139"] ;
192 -> 194 ;
195 [label="avg_price_per_room <= 92.5\ngini = 0.375\nsamples = 3\nvalue = [2, 6]\nclass = sim", fillcolor="#7bbeee"] ;
189 -> 195 ;
196 [label="gini = 0.0\nsamples = 2\nvalue = [0, 6]\nclass = sim", fillcolor="#399de5"] ;
195 -> 196 ;
197 [label="gini = 0.0\nsamples = 1\nvalue = [2, 0]\nclass = não", fillcolor="#e58139"] ;
195 -> 197 ;
198 [label="gini = 0.0\nsamples = 6\nvalue = [14, 0]\nclass = não", fillcolor="#e58139"] ;
184 -> 198 ;
199 [label="avg_price_per_room <= 84.5\ngini = 0.128\nsamples = 154\nvalue = [217, 16]\nclass = não", fillcolor="#e78a48"] ;
141 -> 199 ;
200 [label="lead_time <= 4.5\ngini = 0.157\nsamples = 111\nvalue = [160, 15]\nclass = não", fillcolor="#e78d4c"] ;
199 -> 200 ;
201 [label="market_segment_type <= 1.5\ngini = 0.245\nsamples = 51\nvalue = [66, 11]\nclass = não", fillcolor="#e9965a"] ;
200 -> 201 ;
202 [label="gini = 0.0\nsamples = 11\nvalue = [16, 0]\nclass = não", fillcolor="#e58139"] ;
201 -> 202 ;
203 [label="arrival_month <= 7.5\ngini = 0.296\nsamples = 40\nvalue = [50, 11]\nclass = não", fillcolor="#eb9d65"] ;
201 -> 203 ;
204 [label="arrival_day <= 21.5\ngini = 0.18\nsamples = 8\nvalue = [9, 1]\nclass = não", fillcolor="#e88f4f"] ;
203 -> 204 ;
205 [label="gini = 0.0\nsamples = 4\nvalue = [6, 0]\nclass = não", fillcolor="#e58139"] ;
204 -> 205 ;
206 [label="avg_price_per_room <= 79.5\ngini = 0.375\nsamples = 4\nvalue = [3, 1]\nclass = não", fillcolor="#eeab7b"] ;
204 -> 206 ;
207 [label="arrival_day <= 25.5\ngini = 0.5\nsamples = 2\nvalue = [1, 1]\nclass = não", fillcolor="#ffffff"] ;
206 -> 207 ;
208 [label="gini = 0.0\nsamples = 1\nvalue = [0, 1]\nclass = sim", fillcolor="#399de5"] ;
207 -> 208 ;
209 [label="gini = 0.0\nsamples = 1\nvalue = [1, 0]\nclass = não", fillcolor="#e58139"] ;
207 -> 209 ;
210 [label="gini = 0.0\nsamples = 2\nvalue = [2, 0]\nclass = não", fillcolor="#e58139"] ;
206 -> 210 ;
211 [label="arrival_day <= 18.5\ngini = 0.315\nsamples = 32\nvalue = [41, 10]\nclass = não", fillcolor="#eba069"] ;
203 -> 211 ;
212 [label="avg_price_per_room <= 81.5\ngini = 0.117\nsamples = 9\nvalue = [15, 1]\nclass = não", fillcolor="#e78946"] ;
211 -> 212 ;
213 [label="gini = 0.0\nsamples = 8\nvalue = [15, 0]\nclass = não", fillcolor="#e58139"] ;
212 -> 213 ;
214 [label="gini = 0.0\nsamples = 1\nvalue = [0, 1]\nclass = sim", fillcolor="#399de5"] ;
212 -> 214 ;
215 [label="arrival_month <= 10.5\ngini = 0.382\nsamples = 23\nvalue = [26, 9]\nclass = não", fillcolor="#eead7e"] ;
211 -> 215 ;
216 [label="lead_time <= 0.5\ngini = 0.308\nsamples = 13\nvalue = [17, 4]\nclass = não", fillcolor="#eb9f68"] ;
215 -> 216 ;
217 [label="gini = 0.0\nsamples = 2\nvalue = [3, 0]\nclass = não", fillcolor="#e58139"] ;
216 -> 217 ;
218 [label="lead_time <= 1.5\ngini = 0.346\nsamples = 11\nvalue = [14, 4]\nclass = não", fillcolor="#eca572"] ;
216 -> 218 ;
219 [label="gini = 0.0\nsamples = 1\nvalue = [0, 1]\nclass = sim", fillcolor="#399de5"] ;
218 -> 219 ;
220 [label="arrival_month <= 9.5\ngini = 0.291\nsamples = 10\nvalue = [14, 3]\nclass = não", fillcolor="#eb9c63"] ;
218 -> 220 ;
221 [label="avg_price_per_room <= 66.0\ngini = 0.397\nsamples = 7\nvalue = [8, 3]\nclass = não", fillcolor="#efb083"] ;
220 -> 221 ;
222 [label="arrival_day <= 22.5\ngini = 0.444\nsamples = 6\nvalue = [6, 3]\nclass = não", fillcolor="#f2c09c"] ;
221 -> 222 ;
223 [label="gini = 0.0\nsamples = 2\nvalue = [3, 0]\nclass = não", fillcolor="#e58139"] ;
222 -> 223 ;
224 [label="arrival_month <= 8.5\ngini = 0.5\nsamples = 4\nvalue = [3, 3]\nclass = não", fillcolor="#ffffff"] ;
222 -> 224 ;
225 [label="lead_time <= 3.0\ngini = 0.444\nsamples = 2\nvalue = [2, 1]\nclass = não", fillcolor="#f2c09c"] ;
224 -> 225 ;
226 [label="gini = 0.0\nsamples = 1\nvalue = [2, 0]\nclass = não", fillcolor="#e58139"] ;
225 -> 226 ;
227 [label="gini = 0.0\nsamples = 1\nvalue = [0, 1]\nclass = sim", fillcolor="#399de5"] ;
225 -> 227 ;
228 [label="lead_time <= 2.5\ngini = 0.444\nsamples = 2\nvalue = [1, 2]\nclass = sim", fillcolor="#9ccef2"] ;
224 -> 228 ;
229 [label="gini = 0.0\nsamples = 1\nvalue = [0, 2]\nclass = sim", fillcolor="#399de5"] ;
228 -> 229 ;
230 [label="gini = 0.0\nsamples = 1\nvalue = [1, 0]\nclass = não", fillcolor="#e58139"] ;
228 -> 230 ;
231 [label="gini = 0.0\nsamples = 1\nvalue = [2, 0]\nclass = não", fillcolor="#e58139"] ;
221 -> 231 ;
232 [label="gini = 0.0\nsamples = 3\nvalue = [6, 0]\nclass = não", fillcolor="#e58139"] ;
220 -> 232 ;
233 [label="lead_time <= 1.5\ngini = 0.459\nsamples = 10\nvalue = [9, 5]\nclass = não", fillcolor="#f3c7a7"] ;
215 -> 233 ;
234 [label="lead_time <= 0.5\ngini = 0.444\nsamples = 5\nvalue = [2, 4]\nclass = sim", fillcolor="#9ccef2"] ;
233 -> 234 ;
235 [label="arrival_day <= 26.5\ngini = 0.444\nsamples = 3\nvalue = [2, 1]\nclass = não", fillcolor="#f2c09c"] ;
234 -> 235 ;
236 [label="gini = 0.0\nsamples = 1\nvalue = [1, 0]\nclass = não", fillcolor="#e58139"] ;
235 -> 236 ;
237 [label="gini = 0.5\nsamples = 2\nvalue = [1, 1]\nclass = não", fillcolor="#ffffff"] ;
235 -> 237 ;
238 [label="gini = 0.0\nsamples = 2\nvalue = [0, 3]\nclass = sim", fillcolor="#399de5"] ;
234 -> 238 ;
239 [label="arrival_day <= 21.5\ngini = 0.219\nsamples = 5\nvalue = [7, 1]\nclass = não", fillcolor="#e99355"] ;
233 -> 239 ;
240 [label="gini = 0.0\nsamples = 1\nvalue = [0, 1]\nclass = sim", fillcolor="#399de5"] ;
239 -> 240 ;
241 [label="gini = 0.0\nsamples = 4\nvalue = [7, 0]\nclass = não", fillcolor="#e58139"] ;
239 -> 241 ;
242 [label="arrival_day <= 17.5\ngini = 0.078\nsamples = 60\nvalue = [94, 4]\nclass = não", fillcolor="#e68641"] ;
200 -> 242 ;
243 [label="market_segment_type <= 1.5\ngini = 0.176\nsamples = 27\nvalue = [37, 4]\nclass = não", fillcolor="#e88f4e"] ;
242 -> 243 ;
244 [label="gini = 0.0\nsamples = 3\nvalue = [8, 0]\nclass = não", fillcolor="#e58139"] ;
243 -> 244 ;
245 [label="arrival_month <= 9.5\ngini = 0.213\nsamples = 24\nvalue = [29, 4]\nclass = não", fillcolor="#e99254"] ;
243 -> 245 ;
246 [label="arrival_day <= 14.5\ngini = 0.346\nsamples = 8\nvalue = [7, 2]\nclass = não", fillcolor="#eca572"] ;
245 -> 246 ;
247 [label="gini = 0.0\nsamples = 2\nvalue = [2, 0]\nclass = não", fillcolor="#e58139"] ;
246 -> 247 ;
248 [label="arrival_day <= 16.0\ngini = 0.408\nsamples = 6\nvalue = [5, 2]\nclass = não", fillcolor="#efb388"] ;
246 -> 248 ;
249 [label="lead_time <= 24.0\ngini = 0.444\nsamples = 5\nvalue = [4, 2]\nclass = não", fillcolor="#f2c09c"] ;
248 -> 249 ;
250 [label="gini = 0.0\nsamples = 3\nvalue = [4, 0]\nclass = não", fillcolor="#e58139"] ;
249 -> 250 ;
251 [label="gini = 0.0\nsamples = 2\nvalue = [0, 2]\nclass = sim", fillcolor="#399de5"] ;
249 -> 251 ;
252 [label="gini = 0.0\nsamples = 1\nvalue = [1, 0]\nclass = não", fillcolor="#e58139"] ;
248 -> 252 ;
253 [label="avg_price_per_room <= 63.5\ngini = 0.153\nsamples = 16\nvalue = [22, 2]\nclass = não", fillcolor="#e78c4b"] ;
245 -> 253 ;
254 [label="gini = 0.245\nsamples = 4\nvalue = [6, 1]\nclass = não", fillcolor="#e9965a"] ;
253 -> 254 ;
255 [label="lead_time <= 18.0\ngini = 0.111\nsamples = 12\nvalue = [16, 1]\nclass = não", fillcolor="#e78945"] ;
253 -> 255 ;
256 [label="lead_time <= 16.0\ngini = 0.245\nsamples = 5\nvalue = [6, 1]\nclass = não", fillcolor="#e9965a"] ;
255 -> 256 ;
257 [label="gini = 0.0\nsamples = 4\nvalue = [6, 0]\nclass = não", fillcolor="#e58139"] ;
256 -> 257 ;
258 [label="gini = 0.0\nsamples = 1\nvalue = [0, 1]\nclass = sim", fillcolor="#399de5"] ;
256 -> 258 ;
259 [label="gini = 0.0\nsamples = 7\nvalue = [10, 0]\nclass = não", fillcolor="#e58139"] ;
255 -> 259 ;
260 [label="gini = 0.0\nsamples = 33\nvalue = [57, 0]\nclass = não", fillcolor="#e58139"] ;
242 -> 260 ;
261 [label="lead_time <= 2.5\ngini = 0.034\nsamples = 43\nvalue = [57, 1]\nclass = não", fillcolor="#e5833c"] ;
199 -> 261 ;
262 [label="gini = 0.0\nsamples = 17\nvalue = [25, 0]\nclass = não", fillcolor="#e58139"] ;
261 -> 262 ;
263 [label="arrival_day <= 19.5\ngini = 0.059\nsamples = 26\nvalue = [32, 1]\nclass = não", fillcolor="#e6853f"] ;
261 -> 263 ;
264 [label="no_of_week_nights <= 0.5\ngini = 0.133\nsamples = 12\nvalue = [13, 1]\nclass = não", fillcolor="#e78b48"] ;
263 -> 264 ;
265 [label="gini = 0.0\nsamples = 3\nvalue = [3, 0]\nclass = não", fillcolor="#e58139"] ;
264 -> 265 ;
266 [label="arrival_day <= 17.5\ngini = 0.165\nsamples = 9\nvalue = [10, 1]\nclass = não", fillcolor="#e88e4d"] ;
264 -> 266 ;
267 [label="gini = 0.0\nsamples = 2\nvalue = [3, 0]\nclass = não", fillcolor="#e58139"] ;
266 -> 267 ;
268 [label="arrival_month <= 9.5\ngini = 0.219\nsamples = 7\nvalue = [7, 1]\nclass = não", fillcolor="#e99355"] ;
266 -> 268 ;
269 [label="lead_time <= 6.5\ngini = 0.375\nsamples = 4\nvalue = [3, 1]\nclass = não", fillcolor="#eeab7b"] ;
268 -> 269 ;
270 [label="gini = 0.444\nsamples = 3\nvalue = [2, 1]\nclass = não", fillcolor="#f2c09c"] ;
269 -> 270 ;
271 [label="gini = 0.0\nsamples = 1\nvalue = [1, 0]\nclass = não", fillcolor="#e58139"] ;
269 -> 271 ;
272 [label="gini = 0.0\nsamples = 3\nvalue = [4, 0]\nclass = não", fillcolor="#e58139"] ;
268 -> 272 ;
273 [label="gini = 0.0\nsamples = 14\nvalue = [19, 0]\nclass = não", fillcolor="#e58139"] ;
263 -> 273 ;
274 [label="gini = 0.0\nsamples = 13\nvalue = [0, 23]\nclass = sim", fillcolor="#399de5"] ;
122 -> 274 ;
275 [label="lead_time <= 10.5\ngini = 0.45\nsamples = 158\nvalue = [169, 88]\nclass = não", fillcolor="#f3c3a0"] ;
121 -> 275 ;
276 [label="lead_time <= 5.5\ngini = 0.302\nsamples = 82\nvalue = [110, 25]\nclass = não", fillcolor="#eb9e66"] ;
275 -> 276 ;
277 [label="arrival_day <= 17.5\ngini = 0.337\nsamples = 67\nvalue = [84, 23]\nclass = não", fillcolor="#eca46f"] ;
276 -> 277 ;
278 [label="arrival_day <= 16.5\ngini = 0.444\nsamples = 21\nvalue = [24, 12]\nclass = não", fillcolor="#f2c09c"] ;
277 -> 278 ;
279 [label="avg_price_per_room <= 73.001\ngini = 0.198\nsamples = 16\nvalue = [24, 3]\nclass = não", fillcolor="#e89152"] ;
278 -> 279 ;
280 [label="arrival_month <= 7.5\ngini = 0.408\nsamples = 5\nvalue = [5, 2]\nclass = não", fillcolor="#efb388"] ;
279 -> 280 ;
281 [label="avg_price_per_room <= 68.501\ngini = 0.5\nsamples = 3\nvalue = [2, 2]\nclass = não", fillcolor="#ffffff"] ;
280 -> 281 ;
282 [label="gini = 0.0\nsamples = 2\nvalue = [2, 0]\nclass = não", fillcolor="#e58139"] ;
281 -> 282 ;
283 [label="gini = 0.0\nsamples = 1\nvalue = [0, 2]\nclass = sim", fillcolor="#399de5"] ;
281 -> 283 ;
284 [label="gini = 0.0\nsamples = 2\nvalue = [3, 0]\nclass = não", fillcolor="#e58139"] ;
280 -> 284 ;
285 [label="lead_time <= 4.5\ngini = 0.095\nsamples = 11\nvalue = [19, 1]\nclass = não", fillcolor="#e68843"] ;
279 -> 285 ;
286 [label="gini = 0.0\nsamples = 6\nvalue = [12, 0]\nclass = não", fillcolor="#e58139"] ;
285 -> 286 ;
287 [label="arrival_month <= 8.5\ngini = 0.219\nsamples = 5\nvalue = [7, 1]\nclass = não", fillcolor="#e99355"] ;
285 -> 287 ;
288 [label="arrival_day <= 15.0\ngini = 0.32\nsamples = 4\nvalue = [4, 1]\nclass = não", fillcolor="#eca06a"] ;
287 -> 288 ;
289 [label="avg_price_per_room <= 102.0\ngini = 0.444\nsamples = 2\nvalue = [2, 1]\nclass = não", fillcolor="#f2c09c"] ;
288 -> 289 ;
290 [label="gini = 0.0\nsamples = 1\nvalue = [0, 1]\nclass = sim", fillcolor="#399de5"] ;
289 -> 290 ;
291 [label="gini = 0.0\nsamples = 1\nvalue = [2, 0]\nclass = não", fillcolor="#e58139"] ;
289 -> 291 ;
292 [label="gini = 0.0\nsamples = 2\nvalue = [2, 0]\nclass = não", fillcolor="#e58139"] ;
288 -> 292 ;
293 [label="gini = 0.0\nsamples = 1\nvalue = [3, 0]\nclass = não", fillcolor="#e58139"] ;
287 -> 293 ;
294 [label="gini = 0.0\nsamples = 5\nvalue = [0, 9]\nclass = sim", fillcolor="#399de5"] ;
278 -> 294 ;
295 [label="market_segment_type <= 2.186\ngini = 0.262\nsamples = 46\nvalue = [60, 11]\nclass = não", fillcolor="#ea985d"] ;
277 -> 295 ;
296 [label="lead_time <= 0.5\ngini = 0.245\nsamples = 45\nvalue = [60, 10]\nclass = não", fillcolor="#e9965a"] ;
295 -> 296 ;
297 [label="avg_price_per_room <= 87.233\ngini = 0.469\nsamples = 9\nvalue = [10, 6]\nclass = não", fillcolor="#f5cdb0"] ;
296 -> 297 ;
298 [label="gini = 0.0\nsamples = 5\nvalue = [7, 0]\nclass = não", fillcolor="#e58139"] ;
297 -> 298 ;
299 [label="arrival_day <= 30.0\ngini = 0.444\nsamples = 4\nvalue = [3, 6]\nclass = sim", fillcolor="#9ccef2"] ;
297 -> 299 ;
300 [label="market_segment_type <= 1.116\ngini = 0.245\nsamples = 3\nvalue = [1, 6]\nclass = sim", fillcolor="#5aade9"] ;
299 -> 300 ;
301 [label="gini = 0.0\nsamples = 1\nvalue = [0, 4]\nclass = sim", fillcolor="#399de5"] ;
300 -> 301 ;
302 [label="arrival_day <= 24.0\ngini = 0.444\nsamples = 2\nvalue = [1, 2]\nclass = sim", fillcolor="#9ccef2"] ;
300 -> 302 ;
303 [label="gini = 0.0\nsamples = 1\nvalue = [1, 0]\nclass = não", fillcolor="#e58139"] ;
302 -> 303 ;
304 [label="gini = 0.0\nsamples = 1\nvalue = [0, 2]\nclass = sim", fillcolor="#399de5"] ;
302 -> 304 ;
305 [label="gini = 0.0\nsamples = 1\nvalue = [2, 0]\nclass = não", fillcolor="#e58139"] ;
299 -> 305 ;
306 [label="market_segment_type <= 1.5\ngini = 0.137\nsamples = 36\nvalue = [50, 4]\nclass = não", fillcolor="#e78b49"] ;
296 -> 306 ;
307 [label="gini = 0.0\nsamples = 8\nvalue = [14, 0]\nclass = não", fillcolor="#e58139"] ;
306 -> 307 ;
308 [label="lead_time <= 3.5\ngini = 0.18\nsamples = 28\nvalue = [36, 4]\nclass = não", fillcolor="#e88f4f"] ;
306 -> 308 ;
309 [label="gini = 0.0\nsamples = 14\nvalue = [22, 0]\nclass = não", fillcolor="#e58139"] ;
308 -> 309 ;
310 [label="arrival_month <= 7.5\ngini = 0.346\nsamples = 14\nvalue = [14, 4]\nclass = não", fillcolor="#eca572"] ;
308 -> 310 ;
311 [label="arrival_month <= 3.5\ngini = 0.198\nsamples = 7\nvalue = [8, 1]\nclass = não", fillcolor="#e89152"] ;
310 -> 311 ;
312 [label="gini = 0.0\nsamples = 1\nvalue = [2, 0]\nclass = não", fillcolor="#e58139"] ;
311 -> 312 ;
313 [label="lead_time <= 4.5\ngini = 0.245\nsamples = 6\nvalue = [6, 1]\nclass = não", fillcolor="#e9965a"] ;
311 -> 313 ;
314 [label="gini = 0.0\nsamples = 2\nvalue = [2, 0]\nclass = não", fillcolor="#e58139"] ;
313 -> 314 ;
315 [label="avg_price_per_room <= 105.0\ngini = 0.32\nsamples = 4\nvalue = [4, 1]\nclass = não", fillcolor="#eca06a"] ;
313 -> 315 ;
316 [label="gini = 0.0\nsamples = 1\nvalue = [1, 0]\nclass = não", fillcolor="#e58139"] ;
315 -> 316 ;
317 [label="gini = 0.375\nsamples = 3\nvalue = [3, 1]\nclass = não", fillcolor="#eeab7b"] ;
315 -> 317 ;
318 [label="arrival_month <= 8.5\ngini = 0.444\nsamples = 7\nvalue = [6, 3]\nclass = não", fillcolor="#f2c09c"] ;
310 -> 318 ;
319 [label="no_of_week_nights <= 2.5\ngini = 0.444\nsamples = 2\nvalue = [1, 2]\nclass = sim", fillcolor="#9ccef2"] ;
318 -> 319 ;
320 [label="gini = 0.0\nsamples = 1\nvalue = [0, 2]\nclass = sim", fillcolor="#399de5"] ;
319 -> 320 ;
321 [label="gini = 0.0\nsamples = 1\nvalue = [1, 0]\nclass = não", fillcolor="#e58139"] ;
319 -> 321 ;
322 [label="avg_price_per_room <= 87.5\ngini = 0.278\nsamples = 5\nvalue = [5, 1]\nclass = não", fillcolor="#ea9a61"] ;
318 -> 322 ;
323 [label="gini = 0.0\nsamples = 3\nvalue = [4, 0]\nclass = não", fillcolor="#e58139"] ;
322 -> 323 ;
324 [label="arrival_day <= 24.5\ngini = 0.5\nsamples = 2\nvalue = [1, 1]\nclass = não", fillcolor="#ffffff"] ;
322 -> 324 ;
325 [label="gini = 0.0\nsamples = 1\nvalue = [1, 0]\nclass = não", fillcolor="#e58139"] ;
324 -> 325 ;
326 [label="gini = 0.0\nsamples = 1\nvalue = [0, 1]\nclass = sim", fillcolor="#399de5"] ;
324 -> 326 ;
327 [label="gini = 0.0\nsamples = 1\nvalue = [0, 1]\nclass = sim", fillcolor="#399de5"] ;
295 -> 327 ;
328 [label="arrival_day <= 13.5\ngini = 0.133\nsamples = 15\nvalue = [26, 2]\nclass = não", fillcolor="#e78b48"] ;
276 -> 328 ;
329 [label="gini = 0.0\nsamples = 1\nvalue = [0, 2]\nclass = sim", fillcolor="#399de5"] ;
328 -> 329 ;
330 [label="gini = 0.0\nsamples = 14\nvalue = [26, 0]\nclass = não", fillcolor="#e58139"] ;
328 -> 330 ;
331 [label="market_segment_type <= 2.014\ngini = 0.499\nsamples = 76\nvalue = [59, 63]\nclass = sim", fillcolor="#f2f9fd"] ;
275 -> 331 ;
332 [label="arrival_day <= 19.5\ngini = 0.498\nsamples = 69\nvalue = [59, 52]\nclass = não", fillcolor="#fcf0e8"] ;
331 -> 332 ;
333 [label="no_of_week_nights <= 2.5\ngini = 0.453\nsamples = 46\nvalue = [26, 49]\nclass = sim", fillcolor="#a2d1f3"] ;
332 -> 333 ;
334 [label="lead_time <= 19.5\ngini = 0.271\nsamples = 21\nvalue = [5, 26]\nclass = sim", fillcolor="#5fb0ea"] ;
333 -> 334 ;
335 [label="gini = 0.0\nsamples = 10\nvalue = [0, 14]\nclass = sim", fillcolor="#399de5"] ;
334 -> 335 ;
336 [label="lead_time <= 27.0\ngini = 0.415\nsamples = 11\nvalue = [5, 12]\nclass = sim", fillcolor="#8bc6f0"] ;
334 -> 336 ;
337 [label="gini = 0.0\nsamples = 2\nvalue = [3, 0]\nclass = não", fillcolor="#e58139"] ;
336 -> 337 ;
338 [label="arrival_day <= 18.5\ngini = 0.245\nsamples = 9\nvalue = [2, 12]\nclass = sim", fillcolor="#5aade9"] ;
336 -> 338 ;
339 [label="gini = 0.0\nsamples = 3\nvalue = [0, 4]\nclass = sim", fillcolor="#399de5"] ;
338 -> 339 ;
340 [label="avg_price_per_room <= 97.5\ngini = 0.32\nsamples = 6\nvalue = [2, 8]\nclass = sim", fillcolor="#6ab6ec"] ;
338 -> 340 ;
341 [label="gini = 0.0\nsamples = 2\nvalue = [0, 2]\nclass = sim", fillcolor="#399de5"] ;
340 -> 341 ;
342 [label="gini = 0.375\nsamples = 4\nvalue = [2, 6]\nclass = sim", fillcolor="#7bbeee"] ;
340 -> 342 ;
343 [label="lead_time <= 12.5\ngini = 0.499\nsamples = 25\nvalue = [21, 23]\nclass = sim", fillcolor="#eef6fd"] ;
333 -> 343 ;
344 [label="arrival_month <= 7.5\ngini = 0.444\nsamples = 17\nvalue = [10, 20]\nclass = sim", fillcolor="#9ccef2"] ;
343 -> 344 ;
345 [label="gini = 0.453\nsamples = 15\nvalue = [9, 17]\nclass = sim", fillcolor="#a2d1f3"] ;
344 -> 345 ;
346 [label="arrival_day <= 17.0\ngini = 0.375\nsamples = 2\nvalue = [1, 3]\nclass = sim", fillcolor="#7bbeee"] ;
344 -> 346 ;
347 [label="gini = 0.0\nsamples = 1\nvalue = [1, 0]\nclass = não", fillcolor="#e58139"] ;
346 -> 347 ;
348 [label="gini = 0.0\nsamples = 1\nvalue = [0, 3]\nclass = sim", fillcolor="#399de5"] ;
346 -> 348 ;
349 [label="lead_time <= 23.0\ngini = 0.337\nsamples = 8\nvalue = [11, 3]\nclass = não", fillcolor="#eca36f"] ;
343 -> 349 ;
350 [label="gini = 0.0\nsamples = 6\nvalue = [10, 0]\nclass = não", fillcolor="#e58139"] ;
349 -> 350 ;
351 [label="arrival_day <= 15.5\ngini = 0.375\nsamples = 2\nvalue = [1, 3]\nclass = sim", fillcolor="#7bbeee"] ;
349 -> 351 ;
352 [label="gini = 0.0\nsamples = 1\nvalue = [1, 0]\nclass = não", fillcolor="#e58139"] ;
351 -> 352 ;
353 [label="gini = 0.0\nsamples = 1\nvalue = [0, 3]\nclass = sim", fillcolor="#399de5"] ;
351 -> 353 ;
354 [label="avg_price_per_room <= 89.5\ngini = 0.153\nsamples = 23\nvalue = [33, 3]\nclass = não", fillcolor="#e78c4b"] ;
332 -> 354 ;
355 [label="arrival_day <= 28.5\ngini = 0.278\nsamples = 8\nvalue = [10, 2]\nclass = não", fillcolor="#ea9a61"] ;
354 -> 355 ;
356 [label="gini = 0.0\nsamples = 6\nvalue = [9, 0]\nclass = não", fillcolor="#e58139"] ;
355 -> 356 ;
357 [label="avg_price_per_room <= 78.0\ngini = 0.444\nsamples = 2\nvalue = [1, 2]\nclass = sim", fillcolor="#9ccef2"] ;
355 -> 357 ;
358 [label="gini = 0.0\nsamples = 1\nvalue = [1, 0]\nclass = não", fillcolor="#e58139"] ;
357 -> 358 ;
359 [label="gini = 0.0\nsamples = 1\nvalue = [0, 2]\nclass = sim", fillcolor="#399de5"] ;
357 -> 359 ;
360 [label="lead_time <= 16.0\ngini = 0.08\nsamples = 15\nvalue = [23, 1]\nclass = não", fillcolor="#e68642"] ;
354 -> 360 ;
361 [label="arrival_month <= 6.0\ngini = 0.18\nsamples = 7\nvalue = [9, 1]\nclass = não", fillcolor="#e88f4f"] ;
360 -> 361 ;
362 [label="gini = 0.0\nsamples = 1\nvalue = [1, 0]\nclass = não", fillcolor="#e58139"] ;
361 -> 362 ;
363 [label="arrival_day <= 20.5\ngini = 0.198\nsamples = 6\nvalue = [8, 1]\nclass = não", fillcolor="#e89152"] ;
361 -> 363 ;
364 [label="gini = 0.0\nsamples = 1\nvalue = [1, 0]\nclass = não", fillcolor="#e58139"] ;
363 -> 364 ;
365 [label="gini = 0.219\nsamples = 5\nvalue = [7, 1]\nclass = não", fillcolor="#e99355"] ;
363 -> 365 ;
366 [label="gini = 0.0\nsamples = 8\nvalue = [14, 0]\nclass = não", fillcolor="#e58139"] ;
360 -> 366 ;
367 [label="gini = 0.0\nsamples = 7\nvalue = [0, 11]\nclass = sim", fillcolor="#399de5"] ;
331 -> 367 ;
368 [label="lead_time <= 62.0\ngini = 0.026\nsamples = 199\nvalue = [300, 4]\nclass = não", fillcolor="#e5833c"] ;
8 -> 368 ;
369 [label="market_segment_type <= 2.151\ngini = 0.02\nsamples = 198\nvalue = [300, 3]\nclass = não", fillcolor="#e5823b"] ;
368 -> 369 ;
370 [label="lead_time <= 28.0\ngini = 0.013\nsamples = 197\nvalue = [300, 2]\nclass = não", fillcolor="#e5823a"] ;
369 -> 370 ;
371 [label="gini = 0.0\nsamples = 188\nvalue = [289, 0]\nclass = não", fillcolor="#e58139"] ;
370 -> 371 ;
372 [label="avg_price_per_room <= 132.815\ngini = 0.26\nsamples = 9\nvalue = [11, 2]\nclass = não", fillcolor="#ea985d"] ;
370 -> 372 ;
373 [label="gini = 0.0\nsamples = 8\nvalue = [11, 0]\nclass = não", fillcolor="#e58139"] ;
372 -> 373 ;
374 [label="gini = 0.0\nsamples = 1\nvalue = [0, 2]\nclass = sim", fillcolor="#399de5"] ;
372 -> 374 ;
375 [label="gini = 0.0\nsamples = 1\nvalue = [0, 1]\nclass = sim", fillcolor="#399de5"] ;
369 -> 375 ;
376 [label="gini = 0.0\nsamples = 1\nvalue = [0, 1]\nclass = sim", fillcolor="#399de5"] ;
368 -> 376 ;
377 [label="gini = 0.0\nsamples = 15\nvalue = [0, 26]\nclass = sim", fillcolor="#399de5"] ;
7 -> 377 ;
378 [label="arrival_month <= 2.5\ngini = 0.117\nsamples = 1590\nvalue = [2293, 153]\nclass = não", fillcolor="#e78946"] ;
6 -> 378 ;
379 [label="lead_time <= 1.5\ngini = 0.331\nsamples = 230\nvalue = [279, 74]\nclass = não", fillcolor="#eca26e"] ;
378 -> 379 ;
380 [label="arrival_day <= 25.0\ngini = 0.24\nsamples = 52\nvalue = [11, 68]\nclass = sim", fillcolor="#59ade9"] ;
379 -> 380 ;
381 [label="gini = 0.0\nsamples = 8\nvalue = [10, 0]\nclass = não", fillcolor="#e58139"] ;
380 -> 381 ;
382 [label="arrival_month <= 1.5\ngini = 0.029\nsamples = 44\nvalue = [1, 68]\nclass = sim", fillcolor="#3c9ee5"] ;
380 -> 382 ;
383 [label="gini = 0.0\nsamples = 1\nvalue = [1, 0]\nclass = não", fillcolor="#e58139"] ;
382 -> 383 ;
384 [label="gini = 0.0\nsamples = 43\nvalue = [0, 68]\nclass = sim", fillcolor="#399de5"] ;
382 -> 384 ;
385 [label="avg_price_per_room <= 26.335\ngini = 0.043\nsamples = 178\nvalue = [268, 6]\nclass = não", fillcolor="#e6843d"] ;
379 -> 385 ;
386 [label="gini = 0.0\nsamples = 1\nvalue = [0, 2]\nclass = sim", fillcolor="#399de5"] ;
385 -> 386 ;
387 [label="no_of_week_nights <= 3.5\ngini = 0.029\nsamples = 177\nvalue = [268, 4]\nclass = não", fillcolor="#e5833c"] ;
385 -> 387 ;
388 [label="arrival_day <= 18.5\ngini = 0.008\nsamples = 164\nvalue = [252, 1]\nclass = não", fillcolor="#e5823a"] ;
387 -> 388 ;
389 [label="gini = 0.0\nsamples = 107\nvalue = [162, 0]\nclass = não", fillcolor="#e58139"] ;
388 -> 389 ;
390 [label="no_of_week_nights <= 1.5\ngini = 0.022\nsamples = 57\nvalue = [90, 1]\nclass = não", fillcolor="#e5823b"] ;
388 -> 390 ;
391 [label="gini = 0.0\nsamples = 17\nvalue = [26, 0]\nclass = não", fillcolor="#e58139"] ;
390 -> 391 ;
392 [label="lead_time <= 17.5\ngini = 0.03\nsamples = 40\nvalue = [64, 1]\nclass = não", fillcolor="#e5833c"] ;
390 -> 392 ;
393 [label="gini = 0.0\nsamples = 21\nvalue = [35, 0]\nclass = não", fillcolor="#e58139"] ;
392 -> 393 ;
394 [label="lead_time <= 19.0\ngini = 0.064\nsamples = 19\nvalue = [29, 1]\nclass = não", fillcolor="#e68540"] ;
392 -> 394 ;
395 [label="avg_price_per_room <= 78.0\ngini = 0.5\nsamples = 2\nvalue = [1, 1]\nclass = não", fillcolor="#ffffff"] ;
394 -> 395 ;
396 [label="gini = 0.0\nsamples = 1\nvalue = [0, 1]\nclass = sim", fillcolor="#399de5"] ;
395 -> 396 ;
397 [label="gini = 0.0\nsamples = 1\nvalue = [1, 0]\nclass = não", fillcolor="#e58139"] ;
395 -> 397 ;
398 [label="gini = 0.0\nsamples = 17\nvalue = [28, 0]\nclass = não", fillcolor="#e58139"] ;
394 -> 398 ;
399 [label="arrival_day <= 22.0\ngini = 0.266\nsamples = 13\nvalue = [16, 3]\nclass = não", fillcolor="#ea995e"] ;
387 -> 399 ;
400 [label="no_of_week_nights <= 4.5\ngini = 0.42\nsamples = 6\nvalue = [7, 3]\nclass = não", fillcolor="#f0b78e"] ;
399 -> 400 ;
401 [label="arrival_day <= 19.0\ngini = 0.469\nsamples = 5\nvalue = [5, 3]\nclass = não", fillcolor="#f5cdb0"] ;
400 -> 401 ;
402 [label="gini = 0.0\nsamples = 4\nvalue = [5, 0]\nclass = não", fillcolor="#e58139"] ;
401 -> 402 ;
403 [label="gini = 0.0\nsamples = 1\nvalue = [0, 3]\nclass = sim", fillcolor="#399de5"] ;
401 -> 403 ;
404 [label="gini = 0.0\nsamples = 1\nvalue = [2, 0]\nclass = não", fillcolor="#e58139"] ;
400 -> 404 ;
405 [label="gini = 0.0\nsamples = 7\nvalue = [9, 0]\nclass = não", fillcolor="#e58139"] ;
399 -> 405 ;
406 [label="lead_time <= 59.5\ngini = 0.073\nsamples = 1360\nvalue = [2014, 79]\nclass = não", fillcolor="#e68641"] ;
378 -> 406 ;
407 [label="arrival_month <= 9.5\ngini = 0.055\nsamples = 1270\nvalue = [1899, 55]\nclass = não", fillcolor="#e6853f"] ;
406 -> 407 ;
408 [label="arrival_day <= 1.5\ngini = 0.078\nsamples = 752\nvalue = [1093, 46]\nclass = não", fillcolor="#e68641"] ;
407 -> 408 ;
409 [label="lead_time <= 5.0\ngini = 0.375\nsamples = 14\nvalue = [15, 5]\nclass = não", fillcolor="#eeab7b"] ;
408 -> 409 ;
410 [label="arrival_month <= 7.0\ngini = 0.469\nsamples = 4\nvalue = [3, 5]\nclass = sim", fillcolor="#b0d8f5"] ;
409 -> 410 ;
411 [label="gini = 0.0\nsamples = 2\nvalue = [3, 0]\nclass = não", fillcolor="#e58139"] ;
410 -> 411 ;
412 [label="gini = 0.0\nsamples = 2\nvalue = [0, 5]\nclass = sim", fillcolor="#399de5"] ;
410 -> 412 ;
413 [label="gini = 0.0\nsamples = 10\nvalue = [12, 0]\nclass = não", fillcolor="#e58139"] ;
409 -> 413 ;
414 [label="no_of_special_requests <= 0.5\ngini = 0.071\nsamples = 738\nvalue = [1078, 41]\nclass = não", fillcolor="#e68641"] ;
408 -> 414 ;
415 [label="arrival_day <= 15.5\ngini = 0.084\nsamples = 606\nvalue = [874, 40]\nclass = não", fillcolor="#e68742"] ;
414 -> 415 ;
416 [label="no_of_week_nights <= 1.5\ngini = 0.037\nsamples = 319\nvalue = [472, 9]\nclass = não", fillcolor="#e5833d"] ;
415 -> 416 ;
417 [label="avg_price_per_room <= 86.25\ngini = 0.073\nsamples = 127\nvalue = [177, 7]\nclass = não", fillcolor="#e68641"] ;
416 -> 417 ;
418 [label="avg_price_per_room <= 85.013\ngini = 0.215\nsamples = 36\nvalue = [50, 7]\nclass = não", fillcolor="#e99355"] ;
417 -> 418 ;
419 [label="arrival_month <= 6.5\ngini = 0.111\nsamples = 33\nvalue = [48, 3]\nclass = não", fillcolor="#e78945"] ;
418 -> 419 ;
420 [label="gini = 0.0\nsamples = 20\nvalue = [28, 0]\nclass = não", fillcolor="#e58139"] ;
419 -> 420 ;
421 [label="arrival_month <= 7.5\ngini = 0.227\nsamples = 13\nvalue = [20, 3]\nclass = não", fillcolor="#e99457"] ;
419 -> 421 ;
422 [label="lead_time <= 3.5\ngini = 0.346\nsamples = 6\nvalue = [7, 2]\nclass = não", fillcolor="#eca572"] ;
421 -> 422 ;
423 [label="gini = 0.0\nsamples = 4\nvalue = [6, 0]\nclass = não", fillcolor="#e58139"] ;
422 -> 423 ;
424 [label="arrival_day <= 6.5\ngini = 0.444\nsamples = 2\nvalue = [1, 2]\nclass = sim", fillcolor="#9ccef2"] ;
422 -> 424 ;
425 [label="gini = 0.0\nsamples = 1\nvalue = [1, 0]\nclass = não", fillcolor="#e58139"] ;
424 -> 425 ;
426 [label="gini = 0.0\nsamples = 1\nvalue = [0, 2]\nclass = sim", fillcolor="#399de5"] ;
424 -> 426 ;
427 [label="lead_time <= 41.5\ngini = 0.133\nsamples = 7\nvalue = [13, 1]\nclass = não", fillcolor="#e78b48"] ;
421 -> 427 ;
428 [label="gini = 0.0\nsamples = 6\nvalue = [13, 0]\nclass = não", fillcolor="#e58139"] ;
427 -> 428 ;
429 [label="gini = 0.0\nsamples = 1\nvalue = [0, 1]\nclass = sim", fillcolor="#399de5"] ;
427 -> 429 ;
430 [label="lead_time <= 43.0\ngini = 0.444\nsamples = 3\nvalue = [2, 4]\nclass = sim", fillcolor="#9ccef2"] ;
418 -> 430 ;
431 [label="gini = 0.0\nsamples = 2\nvalue = [0, 4]\nclass = sim", fillcolor="#399de5"] ;
430 -> 431 ;
432 [label="gini = 0.0\nsamples = 1\nvalue = [2, 0]\nclass = não", fillcolor="#e58139"] ;
430 -> 432 ;
433 [label="gini = 0.0\nsamples = 91\nvalue = [127, 0]\nclass = não", fillcolor="#e58139"] ;
417 -> 433 ;
434 [label="avg_price_per_room <= 115.52\ngini = 0.013\nsamples = 192\nvalue = [295, 2]\nclass = não", fillcolor="#e5823a"] ;
416 -> 434 ;
435 [label="lead_time <= 53.5\ngini = 0.008\nsamples = 163\nvalue = [255, 1]\nclass = não", fillcolor="#e5813a"] ;
434 -> 435 ;
436 [label="gini = 0.0\nsamples = 156\nvalue = [246, 0]\nclass = não", fillcolor="#e58139"] ;
435 -> 436 ;
437 [label="lead_time <= 55.0\ngini = 0.18\nsamples = 7\nvalue = [9, 1]\nclass = não", fillcolor="#e88f4f"] ;
435 -> 437 ;
438 [label="gini = 0.0\nsamples = 1\nvalue = [0, 1]\nclass = sim", fillcolor="#399de5"] ;
437 -> 438 ;
439 [label="gini = 0.0\nsamples = 6\nvalue = [9, 0]\nclass = não", fillcolor="#e58139"] ;
437 -> 439 ;
440 [label="arrival_month <= 8.0\ngini = 0.048\nsamples = 29\nvalue = [40, 1]\nclass = não", fillcolor="#e6843e"] ;
434 -> 440 ;
441 [label="gini = 0.0\nsamples = 18\nvalue = [24, 0]\nclass = não", fillcolor="#e58139"] ;
440 -> 441 ;
442 [label="avg_price_per_room <= 118.02\ngini = 0.111\nsamples = 11\nvalue = [16, 1]\nclass = não", fillcolor="#e78945"] ;
440 -> 442 ;
443 [label="gini = 0.0\nsamples = 1\nvalue = [0, 1]\nclass = sim", fillcolor="#399de5"] ;
442 -> 443 ;
444 [label="gini = 0.0\nsamples = 10\nvalue = [16, 0]\nclass = não", fillcolor="#e58139"] ;
442 -> 444 ;
445 [label="no_of_week_nights <= 1.5\ngini = 0.133\nsamples = 287\nvalue = [402, 31]\nclass = não", fillcolor="#e78b48"] ;
415 -> 445 ;
446 [label="avg_price_per_room <= 117.075\ngini = 0.231\nsamples = 117\nvalue = [163, 25]\nclass = não", fillcolor="#e99457"] ;
445 -> 446 ;
447 [label="avg_price_per_room <= 51.9\ngini = 0.19\nsamples = 104\nvalue = [151, 18]\nclass = não", fillcolor="#e89051"] ;
446 -> 447 ;
448 [label="lead_time <= 11.0\ngini = 0.494\nsamples = 5\nvalue = [5, 4]\nclass = não", fillcolor="#fae6d7"] ;
447 -> 448 ;
449 [label="gini = 0.0\nsamples = 2\nvalue = [5, 0]\nclass = não", fillcolor="#e58139"] ;
448 -> 449 ;
450 [label="gini = 0.0\nsamples = 3\nvalue = [0, 4]\nclass = sim", fillcolor="#399de5"] ;
448 -> 450 ;
451 [label="lead_time <= 33.0\ngini = 0.16\nsamples = 99\nvalue = [146, 14]\nclass = não", fillcolor="#e78d4c"] ;
447 -> 451 ;
452 [label="arrival_day <= 16.5\ngini = 0.035\nsamples = 69\nvalue = [109, 2]\nclass = não", fillcolor="#e5833d"] ;
451 -> 452 ;
453 [label="arrival_month <= 3.5\ngini = 0.32\nsamples = 4\nvalue = [4, 1]\nclass = não", fillcolor="#eca06a"] ;
452 -> 453 ;
454 [label="gini = 0.0\nsamples = 2\nvalue = [3, 0]\nclass = não", fillcolor="#e58139"] ;
453 -> 454 ;
455 [label="lead_time <= 1.5\ngini = 0.5\nsamples = 2\nvalue = [1, 1]\nclass = não", fillcolor="#ffffff"] ;
453 -> 455 ;
456 [label="gini = 0.0\nsamples = 1\nvalue = [0, 1]\nclass = sim", fillcolor="#399de5"] ;
455 -> 456 ;
457 [label="gini = 0.0\nsamples = 1\nvalue = [1, 0]\nclass = não", fillcolor="#e58139"] ;
455 -> 457 ;
458 [label="avg_price_per_room <= 97.05\ngini = 0.019\nsamples = 65\nvalue = [105, 1]\nclass = não", fillcolor="#e5823b"] ;
452 -> 458 ;
459 [label="gini = 0.0\nsamples = 51\nvalue = [88, 0]\nclass = não", fillcolor="#e58139"] ;
458 -> 459 ;
460 [label="arrival_day <= 25.5\ngini = 0.105\nsamples = 14\nvalue = [17, 1]\nclass = não", fillcolor="#e78845"] ;
458 -> 460 ;
461 [label="gini = 0.0\nsamples = 10\nvalue = [13, 0]\nclass = não", fillcolor="#e58139"] ;
460 -> 461 ;
462 [label="no_of_week_nights <= 0.5\ngini = 0.32\nsamples = 4\nvalue = [4, 1]\nclass = não", fillcolor="#eca06a"] ;
460 -> 462 ;
463 [label="gini = 0.0\nsamples = 1\nvalue = [0, 1]\nclass = sim", fillcolor="#399de5"] ;
462 -> 463 ;
464 [label="gini = 0.0\nsamples = 3\nvalue = [4, 0]\nclass = não", fillcolor="#e58139"] ;
462 -> 464 ;
465 [label="no_of_week_nights <= 0.5\ngini = 0.37\nsamples = 30\nvalue = [37, 12]\nclass = não", fillcolor="#edaa79"] ;
451 -> 465 ;
466 [label="gini = 0.0\nsamples = 3\nvalue = [5, 0]\nclass = não", fillcolor="#e58139"] ;
465 -> 466 ;
467 [label="arrival_month <= 5.5\ngini = 0.397\nsamples = 27\nvalue = [32, 12]\nclass = não", fillcolor="#efb083"] ;
465 -> 467 ;
468 [label="gini = 0.0\nsamples = 10\nvalue = [19, 0]\nclass = não", fillcolor="#e58139"] ;
467 -> 468 ;
469 [label="lead_time <= 39.0\ngini = 0.499\nsamples = 17\nvalue = [13, 12]\nclass = não", fillcolor="#fdf5f0"] ;
467 -> 469 ;
470 [label="arrival_day <= 18.5\ngini = 0.48\nsamples = 10\nvalue = [6, 9]\nclass = sim", fillcolor="#bddef6"] ;
469 -> 470 ;
471 [label="gini = 0.0\nsamples = 4\nvalue = [5, 0]\nclass = não", fillcolor="#e58139"] ;
470 -> 471 ;
472 [label="lead_time <= 37.0\ngini = 0.18\nsamples = 6\nvalue = [1, 9]\nclass = sim", fillcolor="#4fa8e8"] ;
470 -> 472 ;
473 [label="gini = 0.0\nsamples = 2\nvalue = [0, 3]\nclass = sim", fillcolor="#399de5"] ;
472 -> 473 ;
474 [label="gini = 0.245\nsamples = 4\nvalue = [1, 6]\nclass = sim", fillcolor="#5aade9"] ;
472 -> 474 ;
475 [label="lead_time <= 52.0\ngini = 0.42\nsamples = 7\nvalue = [7, 3]\nclass = não", fillcolor="#f0b78e"] ;
469 -> 475 ;
476 [label="arrival_month <= 6.5\ngini = 0.346\nsamples = 6\nvalue = [7, 2]\nclass = não", fillcolor="#eca572"] ;
475 -> 476 ;
477 [label="arrival_day <= 22.0\ngini = 0.444\nsamples = 4\nvalue = [4, 2]\nclass = não", fillcolor="#f2c09c"] ;
476 -> 477 ;
478 [label="gini = 0.5\nsamples = 3\nvalue = [2, 2]\nclass = não", fillcolor="#ffffff"] ;
477 -> 478 ;
479 [label="gini = 0.0\nsamples = 1\nvalue = [2, 0]\nclass = não", fillcolor="#e58139"] ;
477 -> 479 ;
480 [label="gini = 0.0\nsamples = 2\nvalue = [3, 0]\nclass = não", fillcolor="#e58139"] ;
476 -> 480 ;
481 [label="gini = 0.0\nsamples = 1\nvalue = [0, 1]\nclass = sim", fillcolor="#399de5"] ;
475 -> 481 ;
482 [label="arrival_month <= 8.0\ngini = 0.465\nsamples = 13\nvalue = [12, 7]\nclass = não", fillcolor="#f4caac"] ;
446 -> 482 ;
483 [label="gini = 0.0\nsamples = 7\nvalue = [11, 0]\nclass = não", fillcolor="#e58139"] ;
482 -> 483 ;
484 [label="lead_time <= 11.0\ngini = 0.219\nsamples = 6\nvalue = [1, 7]\nclass = sim", fillcolor="#55abe9"] ;
482 -> 484 ;
485 [label="gini = 0.0\nsamples = 1\nvalue = [1, 0]\nclass = não", fillcolor="#e58139"] ;
484 -> 485 ;
486 [label="gini = 0.0\nsamples = 5\nvalue = [0, 7]\nclass = sim", fillcolor="#399de5"] ;
484 -> 486 ;
487 [label="avg_price_per_room <= 30.693\ngini = 0.048\nsamples = 170\nvalue = [239, 6]\nclass = não", fillcolor="#e6843e"] ;
445 -> 487 ;
488 [label="gini = 0.0\nsamples = 1\nvalue = [0, 1]\nclass = sim", fillcolor="#399de5"] ;
487 -> 488 ;
489 [label="no_of_week_nights <= 2.5\ngini = 0.04\nsamples = 169\nvalue = [239, 5]\nclass = não", fillcolor="#e6843d"] ;
487 -> 489 ;
490 [label="arrival_day <= 16.5\ngini = 0.067\nsamples = 100\nvalue = [138, 5]\nclass = não", fillcolor="#e68640"] ;
489 -> 490 ;
491 [label="arrival_month <= 8.0\ngini = 0.355\nsamples = 9\nvalue = [10, 3]\nclass = não", fillcolor="#eda774"] ;
490 -> 491 ;
492 [label="arrival_month <= 5.0\ngini = 0.444\nsamples = 2\nvalue = [1, 2]\nclass = sim", fillcolor="#9ccef2"] ;
491 -> 492 ;
493 [label="gini = 0.0\nsamples = 1\nvalue = [1, 0]\nclass = não", fillcolor="#e58139"] ;
492 -> 493 ;
494 [label="gini = 0.0\nsamples = 1\nvalue = [0, 2]\nclass = sim", fillcolor="#399de5"] ;
492 -> 494 ;
495 [label="lead_time <= 44.0\ngini = 0.18\nsamples = 7\nvalue = [9, 1]\nclass = não", fillcolor="#e88f4f"] ;
491 -> 495 ;
496 [label="avg_price_per_room <= 72.5\ngini = 0.198\nsamples = 6\nvalue = [8, 1]\nclass = não", fillcolor="#e89152"] ;
495 -> 496 ;
497 [label="gini = 0.0\nsamples = 1\nvalue = [1, 0]\nclass = não", fillcolor="#e58139"] ;
496 -> 497 ;
498 [label="gini = 0.219\nsamples = 5\nvalue = [7, 1]\nclass = não", fillcolor="#e99355"] ;
496 -> 498 ;
499 [label="gini = 0.0\nsamples = 1\nvalue = [1, 0]\nclass = não", fillcolor="#e58139"] ;
495 -> 499 ;
500 [label="lead_time <= 40.5\ngini = 0.03\nsamples = 91\nvalue = [128, 2]\nclass = não", fillcolor="#e5833c"] ;
490 -> 500 ;
501 [label="gini = 0.0\nsamples = 60\nvalue = [82, 0]\nclass = não", fillcolor="#e58139"] ;
500 -> 501 ;
502 [label="avg_price_per_room <= 68.9\ngini = 0.08\nsamples = 31\nvalue = [46, 2]\nclass = não", fillcolor="#e68642"] ;
500 -> 502 ;
503 [label="lead_time <= 49.0\ngini = 0.444\nsamples = 4\nvalue = [4, 2]\nclass = não", fillcolor="#f2c09c"] ;
502 -> 503 ;
504 [label="arrival_day <= 23.0\ngini = 0.444\nsamples = 2\nvalue = [1, 2]\nclass = sim", fillcolor="#9ccef2"] ;
503 -> 504 ;
505 [label="gini = 0.0\nsamples = 1\nvalue = [0, 2]\nclass = sim", fillcolor="#399de5"] ;
504 -> 505 ;
506 [label="gini = 0.0\nsamples = 1\nvalue = [1, 0]\nclass = não", fillcolor="#e58139"] ;
504 -> 506 ;
507 [label="gini = 0.0\nsamples = 2\nvalue = [3, 0]\nclass = não", fillcolor="#e58139"] ;
503 -> 507 ;
508 [label="gini = 0.0\nsamples = 27\nvalue = [42, 0]\nclass = não", fillcolor="#e58139"] ;
502 -> 508 ;
509 [label="gini = 0.0\nsamples = 69\nvalue = [101, 0]\nclass = não", fillcolor="#e58139"] ;
489 -> 509 ;
510 [label="arrival_month <= 8.5\ngini = 0.01\nsamples = 132\nvalue = [204, 1]\nclass = não", fillcolor="#e5823a"] ;
414 -> 510 ;
511 [label="gini = 0.0\nsamples = 97\nvalue = [145, 0]\nclass = não", fillcolor="#e58139"] ;
510 -> 511 ;
512 [label="lead_time <= 13.5\ngini = 0.033\nsamples = 35\nvalue = [59, 1]\nclass = não", fillcolor="#e5833c"] ;
510 -> 512 ;
513 [label="no_of_week_nights <= 8.5\ngini = 0.091\nsamples = 14\nvalue = [20, 1]\nclass = não", fillcolor="#e68743"] ;
512 -> 513 ;
514 [label="gini = 0.0\nsamples = 13\nvalue = [20, 0]\nclass = não", fillcolor="#e58139"] ;
513 -> 514 ;
515 [label="gini = 0.0\nsamples = 1\nvalue = [0, 1]\nclass = sim", fillcolor="#399de5"] ;
513 -> 515 ;
516 [label="gini = 0.0\nsamples = 21\nvalue = [39, 0]\nclass = não", fillcolor="#e58139"] ;
512 -> 516 ;
517 [label="arrival_day <= 14.5\ngini = 0.022\nsamples = 518\nvalue = [806, 9]\nclass = não", fillcolor="#e5823b"] ;
407 -> 517 ;
518 [label="no_of_week_nights <= 4.5\ngini = 0.04\nsamples = 280\nvalue = [431, 9]\nclass = não", fillcolor="#e6843d"] ;
517 -> 518 ;
519 [label="no_of_special_requests <= 0.5\ngini = 0.028\nsamples = 273\nvalue = [419, 6]\nclass = não", fillcolor="#e5833c"] ;
518 -> 519 ;
520 [label="arrival_month <= 10.5\ngini = 0.031\nsamples = 247\nvalue = [370, 6]\nclass = não", fillcolor="#e5833c"] ;
519 -> 520 ;
521 [label="arrival_day <= 5.5\ngini = 0.015\nsamples = 172\nvalue = [267, 2]\nclass = não", fillcolor="#e5823a"] ;
520 -> 521 ;
522 [label="avg_price_per_room <= 71.0\ngini = 0.06\nsamples = 41\nvalue = [63, 2]\nclass = não", fillcolor="#e6853f"] ;
521 -> 522 ;
523 [label="lead_time <= 28.5\ngini = 0.278\nsamples = 9\nvalue = [10, 2]\nclass = não", fillcolor="#ea9a61"] ;
522 -> 523 ;
524 [label="arrival_day <= 3.5\ngini = 0.48\nsamples = 3\nvalue = [3, 2]\nclass = não", fillcolor="#f6d5bd"] ;
523 -> 524 ;
525 [label="gini = 0.0\nsamples = 2\nvalue = [3, 0]\nclass = não", fillcolor="#e58139"] ;
524 -> 525 ;
526 [label="gini = 0.0\nsamples = 1\nvalue = [0, 2]\nclass = sim", fillcolor="#399de5"] ;
524 -> 526 ;
527 [label="gini = 0.0\nsamples = 6\nvalue = [7, 0]\nclass = não", fillcolor="#e58139"] ;
523 -> 527 ;
528 [label="gini = 0.0\nsamples = 32\nvalue = [53, 0]\nclass = não", fillcolor="#e58139"] ;
522 -> 528 ;
529 [label="gini = 0.0\nsamples = 131\nvalue = [204, 0]\nclass = não", fillcolor="#e58139"] ;
521 -> 529 ;
530 [label="arrival_day <= 11.5\ngini = 0.072\nsamples = 75\nvalue = [103, 4]\nclass = não", fillcolor="#e68641"] ;
520 -> 530 ;
531 [label="gini = 0.0\nsamples = 61\nvalue = [86, 0]\nclass = não", fillcolor="#e58139"] ;
530 -> 531 ;
532 [label="avg_price_per_room <= 76.6\ngini = 0.308\nsamples = 14\nvalue = [17, 4]\nclass = não", fillcolor="#eb9f68"] ;
530 -> 532 ;
533 [label="gini = 0.0\nsamples = 11\nvalue = [14, 0]\nclass = não", fillcolor="#e58139"] ;
532 -> 533 ;
534 [label="lead_time <= 25.0\ngini = 0.49\nsamples = 3\nvalue = [3, 4]\nclass = sim", fillcolor="#cee6f8"] ;
532 -> 534 ;
535 [label="gini = 0.0\nsamples = 2\nvalue = [3, 0]\nclass = não", fillcolor="#e58139"] ;
534 -> 535 ;
536 [label="gini = 0.0\nsamples = 1\nvalue = [0, 4]\nclass = sim", fillcolor="#399de5"] ;
534 -> 536 ;
537 [label="gini = 0.0\nsamples = 26\nvalue = [49, 0]\nclass = não", fillcolor="#e58139"] ;
519 -> 537 ;
538 [label="lead_time <= 47.0\ngini = 0.32\nsamples = 7\nvalue = [12, 3]\nclass = não", fillcolor="#eca06a"] ;
518 -> 538 ;
539 [label="gini = 0.0\nsamples = 6\nvalue = [12, 0]\nclass = não", fillcolor="#e58139"] ;
538 -> 539 ;
540 [label="gini = 0.0\nsamples = 1\nvalue = [0, 3]\nclass = sim", fillcolor="#399de5"] ;
538 -> 540 ;
541 [label="gini = 0.0\nsamples = 238\nvalue = [375, 0]\nclass = não", fillcolor="#e58139"] ;
517 -> 541 ;
542 [label="avg_price_per_room <= 52.0\ngini = 0.286\nsamples = 90\nvalue = [115, 24]\nclass = não", fillcolor="#ea9b62"] ;
406 -> 542 ;
543 [label="gini = 0.0\nsamples = 4\nvalue = [0, 7]\nclass = sim", fillcolor="#399de5"] ;
542 -> 543 ;
544 [label="no_of_week_nights <= 6.5\ngini = 0.224\nsamples = 86\nvalue = [115, 17]\nclass = não", fillcolor="#e99456"] ;
542 -> 544 ;
545 [label="arrival_month <= 3.5\ngini = 0.214\nsamples = 85\nvalue = [115, 16]\nclass = não", fillcolor="#e99355"] ;
544 -> 545 ;
546 [label="arrival_day <= 19.5\ngini = 0.153\nsamples = 9\nvalue = [1, 11]\nclass = sim", fillcolor="#4ba6e7"] ;
545 -> 546 ;
547 [label="gini = 0.0\nsamples = 1\nvalue = [1, 0]\nclass = não", fillcolor="#e58139"] ;
546 -> 547 ;
548 [label="gini = 0.0\nsamples = 8\nvalue = [0, 11]\nclass = sim", fillcolor="#399de5"] ;
546 -> 548 ;
549 [label="arrival_month <= 5.5\ngini = 0.081\nsamples = 76\nvalue = [114, 5]\nclass = não", fillcolor="#e68742"] ;
545 -> 549 ;
550 [label="avg_price_per_room <= 84.365\ngini = 0.444\nsamples = 7\nvalue = [6, 3]\nclass = não", fillcolor="#f2c09c"] ;
549 -> 550 ;
551 [label="gini = 0.0\nsamples = 3\nvalue = [3, 0]\nclass = não", fillcolor="#e58139"] ;
550 -> 551 ;
552 [label="lead_time <= 61.5\ngini = 0.5\nsamples = 4\nvalue = [3, 3]\nclass = não", fillcolor="#ffffff"] ;
550 -> 552 ;
553 [label="gini = 0.0\nsamples = 2\nvalue = [3, 0]\nclass = não", fillcolor="#e58139"] ;
552 -> 553 ;
554 [label="gini = 0.0\nsamples = 2\nvalue = [0, 3]\nclass = sim", fillcolor="#399de5"] ;
552 -> 554 ;
555 [label="no_of_week_nights <= 1.5\ngini = 0.036\nsamples = 69\nvalue = [108, 2]\nclass = não", fillcolor="#e5833d"] ;
549 -> 555 ;
556 [label="arrival_day <= 15.5\ngini = 0.061\nsamples = 39\nvalue = [61, 2]\nclass = não", fillcolor="#e6853f"] ;
555 -> 556 ;
557 [label="gini = 0.0\nsamples = 19\nvalue = [32, 0]\nclass = não", fillcolor="#e58139"] ;
556 -> 557 ;
558 [label="arrival_month <= 10.5\ngini = 0.121\nsamples = 20\nvalue = [29, 2]\nclass = não", fillcolor="#e78a47"] ;
556 -> 558 ;
559 [label="gini = 0.0\nsamples = 16\nvalue = [23, 0]\nclass = não", fillcolor="#e58139"] ;
558 -> 559 ;
560 [label="avg_price_per_room <= 71.5\ngini = 0.375\nsamples = 4\nvalue = [6, 2]\nclass = não", fillcolor="#eeab7b"] ;
558 -> 560 ;
561 [label="gini = 0.0\nsamples = 1\nvalue = [0, 2]\nclass = sim", fillcolor="#399de5"] ;
560 -> 561 ;
562 [label="gini = 0.0\nsamples = 3\nvalue = [6, 0]\nclass = não", fillcolor="#e58139"] ;
560 -> 562 ;
563 [label="gini = 0.0\nsamples = 30\nvalue = [47, 0]\nclass = não", fillcolor="#e58139"] ;
555 -> 563 ;
564 [label="gini = 0.0\nsamples = 1\nvalue = [0, 1]\nclass = sim", fillcolor="#399de5"] ;
544 -> 564 ;
565 [label="no_of_week_nights <= 0.5\ngini = 0.382\nsamples = 636\nvalue = [744, 257]\nclass = não", fillcolor="#eead7d"] ;
5 -> 565 ;
566 [label="lead_time <= 81.0\ngini = 0.063\nsamples = 42\nvalue = [2, 59]\nclass = sim", fillcolor="#40a0e6"] ;
565 -> 566 ;
567 [label="gini = 0.0\nsamples = 41\nvalue = [0, 59]\nclass = sim", fillcolor="#399de5"] ;
566 -> 567 ;
568 [label="gini = 0.0\nsamples = 1\nvalue = [2, 0]\nclass = não", fillcolor="#e58139"] ;
566 -> 568 ;
569 [label="avg_price_per_room <= 113.9\ngini = 0.333\nsamples = 594\nvalue = [742, 198]\nclass = não", fillcolor="#eca36e"] ;
565 -> 569 ;
570 [label="avg_price_per_room <= 100.405\ngini = 0.221\nsamples = 425\nvalue = [574, 83]\nclass = não", fillcolor="#e99356"] ;
569 -> 570 ;
571 [label="no_of_special_requests <= 0.5\ngini = 0.283\nsamples = 310\nvalue = [398, 82]\nclass = não", fillcolor="#ea9b62"] ;
570 -> 571 ;
572 [label="lead_time <= 74.5\ngini = 0.334\nsamples = 250\nvalue = [301, 81]\nclass = não", fillcolor="#eca36e"] ;
571 -> 572 ;
573 [label="arrival_month <= 9.5\ngini = 0.226\nsamples = 101\nvalue = [134, 20]\nclass = não", fillcolor="#e99457"] ;
572 -> 573 ;
574 [label="arrival_month <= 3.5\ngini = 0.103\nsamples = 60\nvalue = [87, 5]\nclass = não", fillcolor="#e68844"] ;
573 -> 574 ;
575 [label="lead_time <= 67.5\ngini = 0.42\nsamples = 6\nvalue = [7, 3]\nclass = não", fillcolor="#f0b78e"] ;
574 -> 575 ;
576 [label="no_of_week_nights <= 2.5\ngini = 0.375\nsamples = 2\nvalue = [1, 3]\nclass = sim", fillcolor="#7bbeee"] ;
575 -> 576 ;
577 [label="gini = 0.0\nsamples = 1\nvalue = [0, 3]\nclass = sim", fillcolor="#399de5"] ;
576 -> 577 ;
578 [label="gini = 0.0\nsamples = 1\nvalue = [1, 0]\nclass = não", fillcolor="#e58139"] ;
576 -> 578 ;
579 [label="gini = 0.0\nsamples = 4\nvalue = [6, 0]\nclass = não", fillcolor="#e58139"] ;
575 -> 579 ;
580 [label="lead_time <= 70.5\ngini = 0.048\nsamples = 54\nvalue = [80, 2]\nclass = não", fillcolor="#e6843e"] ;
574 -> 580 ;
581 [label="gini = 0.0\nsamples = 24\nvalue = [37, 0]\nclass = não", fillcolor="#e58139"] ;
580 -> 581 ;
582 [label="no_of_week_nights <= 5.0\ngini = 0.085\nsamples = 30\nvalue = [43, 2]\nclass = não", fillcolor="#e68742"] ;
580 -> 582 ;
583 [label="no_of_week_nights <= 2.5\ngini = 0.044\nsamples = 29\nvalue = [43, 1]\nclass = não", fillcolor="#e6843e"] ;
582 -> 583 ;
584 [label="gini = 0.0\nsamples = 16\nvalue = [28, 0]\nclass = não", fillcolor="#e58139"] ;
583 -> 584 ;
585 [label="avg_price_per_room <= 87.5\ngini = 0.117\nsamples = 13\nvalue = [15, 1]\nclass = não", fillcolor="#e78946"] ;
583 -> 585 ;
586 [label="arrival_month <= 8.5\ngini = 0.245\nsamples = 6\nvalue = [6, 1]\nclass = não", fillcolor="#e9965a"] ;
585 -> 586 ;
587 [label="gini = 0.0\nsamples = 4\nvalue = [5, 0]\nclass = não", fillcolor="#e58139"] ;
586 -> 587 ;
588 [label="lead_time <= 72.0\ngini = 0.5\nsamples = 2\nvalue = [1, 1]\nclass = não", fillcolor="#ffffff"] ;
586 -> 588 ;
589 [label="gini = 0.0\nsamples = 1\nvalue = [1, 0]\nclass = não", fillcolor="#e58139"] ;
588 -> 589 ;
590 [label="gini = 0.0\nsamples = 1\nvalue = [0, 1]\nclass = sim", fillcolor="#399de5"] ;
588 -> 590 ;
591 [label="gini = 0.0\nsamples = 7\nvalue = [9, 0]\nclass = não", fillcolor="#e58139"] ;
585 -> 591 ;
592 [label="gini = 0.0\nsamples = 1\nvalue = [0, 1]\nclass = sim", fillcolor="#399de5"] ;
582 -> 592 ;
593 [label="lead_time <= 66.5\ngini = 0.367\nsamples = 41\nvalue = [47, 15]\nclass = não", fillcolor="#eda978"] ;
573 -> 593 ;
594 [label="arrival_day <= 8.5\ngini = 0.495\nsamples = 22\nvalue = [17, 14]\nclass = não", fillcolor="#fae9dc"] ;
593 -> 594 ;
595 [label="gini = 0.0\nsamples = 7\nvalue = [9, 0]\nclass = não", fillcolor="#e58139"] ;
594 -> 595 ;
596 [label="avg_price_per_room <= 85.65\ngini = 0.463\nsamples = 15\nvalue = [8, 14]\nclass = sim", fillcolor="#aad5f4"] ;
594 -> 596 ;
597 [label="gini = 0.42\nsamples = 14\nvalue = [6, 14]\nclass = sim", fillcolor="#8ec7f0"] ;
596 -> 597 ;
598 [label="gini = 0.0\nsamples = 1\nvalue = [2, 0]\nclass = não", fillcolor="#e58139"] ;
596 -> 598 ;
599 [label="arrival_day <= 5.0\ngini = 0.062\nsamples = 19\nvalue = [30, 1]\nclass = não", fillcolor="#e68540"] ;
593 -> 599 ;
600 [label="avg_price_per_room <= 58.855\ngini = 0.444\nsamples = 2\nvalue = [2, 1]\nclass = não", fillcolor="#f2c09c"] ;
599 -> 600 ;
601 [label="gini = 0.0\nsamples = 1\nvalue = [2, 0]\nclass = não", fillcolor="#e58139"] ;
600 -> 601 ;
602 [label="gini = 0.0\nsamples = 1\nvalue = [0, 1]\nclass = sim", fillcolor="#399de5"] ;
600 -> 602 ;
603 [label="gini = 0.0\nsamples = 17\nvalue = [28, 0]\nclass = não", fillcolor="#e58139"] ;
599 -> 603 ;
604 [label="avg_price_per_room <= 98.45\ngini = 0.392\nsamples = 149\nvalue = [167, 61]\nclass = não", fillcolor="#eeaf81"] ;
572 -> 604 ;
605 [label="avg_price_per_room <= 80.375\ngini = 0.253\nsamples = 119\nvalue = [155, 27]\nclass = não", fillcolor="#ea975b"] ;
604 -> 605 ;
606 [label="no_of_week_nights <= 3.5\ngini = 0.348\nsamples = 70\nvalue = [83, 24]\nclass = não", fillcolor="#eda572"] ;
605 -> 606 ;
607 [label="lead_time <= 75.5\ngini = 0.402\nsamples = 57\nvalue = [62, 24]\nclass = não", fillcolor="#efb286"] ;
606 -> 607 ;
608 [label="avg_price_per_room <= 76.125\ngini = 0.337\nsamples = 12\nvalue = [3, 11]\nclass = sim", fillcolor="#6fb8ec"] ;
607 -> 608 ;
609 [label="no_of_week_nights <= 2.5\ngini = 0.375\nsamples = 3\nvalue = [3, 1]\nclass = não", fillcolor="#eeab7b"] ;
608 -> 609 ;
610 [label="gini = 0.0\nsamples = 2\nvalue = [3, 0]\nclass = não", fillcolor="#e58139"] ;
609 -> 610 ;
611 [label="gini = 0.0\nsamples = 1\nvalue = [0, 1]\nclass = sim", fillcolor="#399de5"] ;
609 -> 611 ;
612 [label="gini = 0.0\nsamples = 9\nvalue = [0, 10]\nclass = sim", fillcolor="#399de5"] ;
608 -> 612 ;
613 [label="lead_time <= 79.5\ngini = 0.296\nsamples = 45\nvalue = [59, 13]\nclass = não", fillcolor="#eb9d65"] ;
607 -> 613 ;
614 [label="no_of_week_nights <= 1.5\ngini = 0.077\nsamples = 15\nvalue = [24, 1]\nclass = não", fillcolor="#e68641"] ;
613 -> 614 ;
615 [label="arrival_day <= 16.5\ngini = 0.278\nsamples = 4\nvalue = [5, 1]\nclass = não", fillcolor="#ea9a61"] ;
614 -> 615 ;
616 [label="gini = 0.0\nsamples = 3\nvalue = [5, 0]\nclass = não", fillcolor="#e58139"] ;
615 -> 616 ;
617 [label="gini = 0.0\nsamples = 1\nvalue = [0, 1]\nclass = sim", fillcolor="#399de5"] ;
615 -> 617 ;
618 [label="gini = 0.0\nsamples = 11\nvalue = [19, 0]\nclass = não", fillcolor="#e58139"] ;
614 -> 618 ;
619 [label="lead_time <= 80.5\ngini = 0.38\nsamples = 30\nvalue = [35, 12]\nclass = não", fillcolor="#eeac7d"] ;
613 -> 619 ;
620 [label="avg_price_per_room <= 73.525\ngini = 0.219\nsamples = 5\nvalue = [1, 7]\nclass = sim", fillcolor="#55abe9"] ;
619 -> 620 ;
621 [label="gini = 0.0\nsamples = 1\nvalue = [1, 0]\nclass = não", fillcolor="#e58139"] ;
620 -> 621 ;
622 [label="gini = 0.0\nsamples = 4\nvalue = [0, 7]\nclass = sim", fillcolor="#399de5"] ;
620 -> 622 ;
623 [label="lead_time <= 85.5\ngini = 0.224\nsamples = 25\nvalue = [34, 5]\nclass = não", fillcolor="#e99456"] ;
619 -> 623 ;
624 [label="avg_price_per_room <= 62.5\ngini = 0.278\nsamples = 19\nvalue = [25, 5]\nclass = não", fillcolor="#ea9a61"] ;
623 -> 624 ;
625 [label="gini = 0.0\nsamples = 5\nvalue = [5, 0]\nclass = não", fillcolor="#e58139"] ;
624 -> 625 ;
626 [label="no_of_week_nights <= 2.5\ngini = 0.32\nsamples = 14\nvalue = [20, 5]\nclass = não", fillcolor="#eca06a"] ;
624 -> 626 ;
627 [label="lead_time <= 81.5\ngini = 0.278\nsamples = 11\nvalue = [15, 3]\nclass = não", fillcolor="#ea9a61"] ;
626 -> 627 ;
628 [label="gini = 0.375\nsamples = 8\nvalue = [9, 3]\nclass = não", fillcolor="#eeab7b"] ;
627 -> 628 ;
629 [label="gini = 0.0\nsamples = 3\nvalue = [6, 0]\nclass = não", fillcolor="#e58139"] ;
627 -> 629 ;
630 [label="avg_price_per_room <= 73.625\ngini = 0.408\nsamples = 3\nvalue = [5, 2]\nclass = não", fillcolor="#efb388"] ;
626 -> 630 ;
631 [label="gini = 0.0\nsamples = 1\nvalue = [2, 0]\nclass = não", fillcolor="#e58139"] ;
630 -> 631 ;
632 [label="gini = 0.48\nsamples = 2\nvalue = [3, 2]\nclass = não", fillcolor="#f6d5bd"] ;
630 -> 632 ;
633 [label="gini = 0.0\nsamples = 6\nvalue = [9, 0]\nclass = não", fillcolor="#e58139"] ;
623 -> 633 ;
634 [label="gini = 0.0\nsamples = 13\nvalue = [21, 0]\nclass = não", fillcolor="#e58139"] ;
606 -> 634 ;
635 [label="avg_price_per_room <= 88.449\ngini = 0.077\nsamples = 49\nvalue = [72, 3]\nclass = não", fillcolor="#e68641"] ;
605 -> 635 ;
636 [label="gini = 0.0\nsamples = 28\nvalue = [46, 0]\nclass = não", fillcolor="#e58139"] ;
635 -> 636 ;
637 [label="arrival_month <= 8.0\ngini = 0.185\nsamples = 21\nvalue = [26, 3]\nclass = não", fillcolor="#e89050"] ;
635 -> 637 ;
638 [label="gini = 0.0\nsamples = 10\nvalue = [13, 0]\nclass = não", fillcolor="#e58139"] ;
637 -> 638 ;
639 [label="avg_price_per_room <= 89.574\ngini = 0.305\nsamples = 11\nvalue = [13, 3]\nclass = não", fillcolor="#eb9e67"] ;
637 -> 639 ;
640 [label="gini = 0.0\nsamples = 1\nvalue = [0, 1]\nclass = sim", fillcolor="#399de5"] ;
639 -> 640 ;
641 [label="lead_time <= 81.5\ngini = 0.231\nsamples = 10\nvalue = [13, 2]\nclass = não", fillcolor="#e99457"] ;
639 -> 641 ;
642 [label="arrival_day <= 3.0\ngini = 0.444\nsamples = 2\nvalue = [1, 2]\nclass = sim", fillcolor="#9ccef2"] ;
641 -> 642 ;
643 [label="gini = 0.0\nsamples = 1\nvalue = [1, 0]\nclass = não", fillcolor="#e58139"] ;
642 -> 643 ;
644 [label="gini = 0.0\nsamples = 1\nvalue = [0, 2]\nclass = sim", fillcolor="#399de5"] ;
642 -> 644 ;
645 [label="gini = 0.0\nsamples = 8\nvalue = [12, 0]\nclass = não", fillcolor="#e58139"] ;
641 -> 645 ;
646 [label="lead_time <= 83.0\ngini = 0.386\nsamples = 30\nvalue = [12, 34]\nclass = sim", fillcolor="#7fc0ee"] ;
604 -> 646 ;
647 [label="no_of_week_nights <= 2.5\ngini = 0.074\nsamples = 18\nvalue = [1, 25]\nclass = sim", fillcolor="#41a1e6"] ;
646 -> 647 ;
648 [label="gini = 0.0\nsamples = 17\nvalue = [0, 25]\nclass = sim", fillcolor="#399de5"] ;
647 -> 648 ;
649 [label="gini = 0.0\nsamples = 1\nvalue = [1, 0]\nclass = não", fillcolor="#e58139"] ;
647 -> 649 ;
650 [label="arrival_day <= 9.5\ngini = 0.495\nsamples = 12\nvalue = [11, 9]\nclass = não", fillcolor="#fae8db"] ;
646 -> 650 ;
651 [label="no_of_week_nights <= 1.5\ngini = 0.43\nsamples = 9\nvalue = [11, 5]\nclass = não", fillcolor="#f1ba93"] ;
650 -> 651 ;
652 [label="gini = 0.0\nsamples = 2\nvalue = [0, 4]\nclass = sim", fillcolor="#399de5"] ;
651 -> 652 ;
653 [label="no_of_week_nights <= 2.5\ngini = 0.153\nsamples = 7\nvalue = [11, 1]\nclass = não", fillcolor="#e78c4b"] ;
651 -> 653 ;
654 [label="gini = 0.18\nsamples = 6\nvalue = [9, 1]\nclass = não", fillcolor="#e88f4f"] ;
653 -> 654 ;
655 [label="gini = 0.0\nsamples = 1\nvalue = [2, 0]\nclass = não", fillcolor="#e58139"] ;
653 -> 655 ;
656 [label="gini = 0.0\nsamples = 3\nvalue = [0, 4]\nclass = sim", fillcolor="#399de5"] ;
650 -> 656 ;
657 [label="market_segment_type <= 2.5\ngini = 0.02\nsamples = 60\nvalue = [97, 1]\nclass = não", fillcolor="#e5823b"] ;
571 -> 657 ;
658 [label="no_of_week_nights <= 1.5\ngini = 0.18\nsamples = 7\nvalue = [9, 1]\nclass = não", fillcolor="#e88f4f"] ;
657 -> 658 ;
659 [label="market_segment_type <= 1.5\ngini = 0.444\nsamples = 2\nvalue = [2, 1]\nclass = não", fillcolor="#f2c09c"] ;
658 -> 659 ;
660 [label="gini = 0.0\nsamples = 1\nvalue = [2, 0]\nclass = não", fillcolor="#e58139"] ;
659 -> 660 ;
661 [label="gini = 0.0\nsamples = 1\nvalue = [0, 1]\nclass = sim", fillcolor="#399de5"] ;
659 -> 661 ;
662 [label="gini = 0.0\nsamples = 5\nvalue = [7, 0]\nclass = não", fillcolor="#e58139"] ;
658 -> 662 ;
663 [label="gini = 0.0\nsamples = 53\nvalue = [88, 0]\nclass = não", fillcolor="#e58139"] ;
657 -> 663 ;
664 [label="avg_price_per_room <= 110.25\ngini = 0.011\nsamples = 115\nvalue = [176, 1]\nclass = não", fillcolor="#e5823a"] ;
570 -> 664 ;
665 [label="gini = 0.0\nsamples = 97\nvalue = [148, 0]\nclass = não", fillcolor="#e58139"] ;
664 -> 665 ;
666 [label="avg_price_per_room <= 111.25\ngini = 0.067\nsamples = 18\nvalue = [28, 1]\nclass = não", fillcolor="#e68640"] ;
664 -> 666 ;
667 [label="gini = 0.0\nsamples = 1\nvalue = [0, 1]\nclass = sim", fillcolor="#399de5"] ;
666 -> 667 ;
668 [label="gini = 0.0\nsamples = 17\nvalue = [28, 0]\nclass = não", fillcolor="#e58139"] ;
666 -> 668 ;
669 [label="no_of_week_nights <= 3.5\ngini = 0.482\nsamples = 169\nvalue = [168, 115]\nclass = não", fillcolor="#f7d7c1"] ;
569 -> 669 ;
670 [label="arrival_month <= 5.5\ngini = 0.243\nsamples = 110\nvalue = [164, 27]\nclass = não", fillcolor="#e9965a"] ;
669 -> 670 ;
671 [label="no_of_week_nights <= 2.5\ngini = 0.456\nsamples = 45\nvalue = [48, 26]\nclass = não", fillcolor="#f3c5a4"] ;
670 -> 671 ;
672 [label="no_of_special_requests <= 0.5\ngini = 0.499\nsamples = 35\nvalue = [29, 26]\nclass = não", fillcolor="#fcf2eb"] ;
671 -> 672 ;
673 [label="avg_price_per_room <= 135.0\ngini = 0.494\nsamples = 30\nvalue = [21, 26]\nclass = sim", fillcolor="#d9ecfa"] ;
672 -> 673 ;
674 [label="gini = 0.0\nsamples = 11\nvalue = [20, 0]\nclass = não", fillcolor="#e58139"] ;
673 -> 674 ;
675 [label="avg_price_per_room <= 156.675\ngini = 0.071\nsamples = 19\nvalue = [1, 26]\nclass = sim", fillcolor="#41a1e6"] ;
673 -> 675 ;
676 [label="gini = 0.0\nsamples = 18\nvalue = [0, 26]\nclass = sim", fillcolor="#399de5"] ;
675 -> 676 ;
677 [label="gini = 0.0\nsamples = 1\nvalue = [1, 0]\nclass = não", fillcolor="#e58139"] ;
675 -> 677 ;
678 [label="gini = 0.0\nsamples = 5\nvalue = [8, 0]\nclass = não", fillcolor="#e58139"] ;
672 -> 678 ;
679 [label="gini = 0.0\nsamples = 10\nvalue = [19, 0]\nclass = não", fillcolor="#e58139"] ;
671 -> 679 ;
680 [label="market_segment_type <= 2.5\ngini = 0.017\nsamples = 65\nvalue = [116, 1]\nclass = não", fillcolor="#e5823b"] ;
670 -> 680 ;
681 [label="arrival_day <= 21.5\ngini = 0.444\nsamples = 2\nvalue = [2, 1]\nclass = não", fillcolor="#f2c09c"] ;
680 -> 681 ;
682 [label="gini = 0.0\nsamples = 1\nvalue = [0, 1]\nclass = sim", fillcolor="#399de5"] ;
681 -> 682 ;
683 [label="gini = 0.0\nsamples = 1\nvalue = [2, 0]\nclass = não", fillcolor="#e58139"] ;
681 -> 683 ;
684 [label="gini = 0.0\nsamples = 63\nvalue = [114, 0]\nclass = não", fillcolor="#e58139"] ;
680 -> 684 ;
685 [label="lead_time <= 78.5\ngini = 0.083\nsamples = 59\nvalue = [4, 88]\nclass = sim", fillcolor="#42a1e6"] ;
669 -> 685 ;
686 [label="gini = 0.0\nsamples = 58\nvalue = [0, 88]\nclass = sim", fillcolor="#399de5"] ;
685 -> 686 ;
687 [label="gini = 0.0\nsamples = 1\nvalue = [4, 0]\nclass = não", fillcolor="#e58139"] ;
685 -> 687 ;
688 [label="lead_time <= 20.5\ngini = 0.061\nsamples = 21\nvalue = [1, 31]\nclass = sim", fillcolor="#3fa0e6"] ;
4 -> 688 ;
689 [label="gini = 0.0\nsamples = 1\nvalue = [1, 0]\nclass = não", fillcolor="#e58139"] ;
688 -> 689 ;
690 [label="gini = 0.0\nsamples = 20\nvalue = [0, 31]\nclass = sim", fillcolor="#399de5"] ;
688 -> 690 ;
691 [label="no_of_special_requests <= 0.5\ngini = 0.5\nsamples = 1093\nvalue = [916, 879]\nclass = não", fillcolor="#fefaf7"] ;
3 -> 691 ;
692 [label="avg_price_per_room <= 93.575\ngini = 0.498\nsamples = 973\nvalue = [759, 864]\nclass = sim", fillcolor="#e7f3fc"] ;
691 -> 692 ;
693 [label="no_of_week_nights <= 2.5\ngini = 0.494\nsamples = 510\nvalue = [470, 376]\nclass = não", fillcolor="#fae6d7"] ;
692 -> 693 ;
694 [label="arrival_month <= 3.5\ngini = 0.497\nsamples = 373\nvalue = [290, 339]\nclass = sim", fillcolor="#e2f1fb"] ;
693 -> 694 ;
695 [label="lead_time <= 115.5\ngini = 0.469\nsamples = 121\nvalue = [135, 81]\nclass = não", fillcolor="#f5cdb0"] ;
694 -> 695 ;
696 [label="arrival_day <= 18.5\ngini = 0.195\nsamples = 47\nvalue = [73, 9]\nclass = não", fillcolor="#e89151"] ;
695 -> 696 ;
697 [label="arrival_month <= 2.5\ngini = 0.463\nsamples = 8\nvalue = [7, 4]\nclass = não", fillcolor="#f4c9aa"] ;
696 -> 697 ;
698 [label="no_of_week_nights <= 1.5\ngini = 0.48\nsamples = 4\nvalue = [2, 3]\nclass = sim", fillcolor="#bddef6"] ;
697 -> 698 ;
699 [label="lead_time <= 100.5\ngini = 0.375\nsamples = 3\nvalue = [1, 3]\nclass = sim", fillcolor="#7bbeee"] ;
698 -> 699 ;
700 [label="gini = 0.0\nsamples = 2\nvalue = [0, 3]\nclass = sim", fillcolor="#399de5"] ;
699 -> 700 ;
701 [label="gini = 0.0\nsamples = 1\nvalue = [1, 0]\nclass = não", fillcolor="#e58139"] ;
699 -> 701 ;
702 [label="gini = 0.0\nsamples = 1\nvalue = [1, 0]\nclass = não", fillcolor="#e58139"] ;
698 -> 702 ;
703 [label="no_of_week_nights <= 1.5\ngini = 0.278\nsamples = 4\nvalue = [5, 1]\nclass = não", fillcolor="#ea9a61"] ;
697 -> 703 ;
704 [label="gini = 0.0\nsamples = 1\nvalue = [0, 1]\nclass = sim", fillcolor="#399de5"] ;
703 -> 704 ;
705 [label="gini = 0.0\nsamples = 3\nvalue = [5, 0]\nclass = não", fillcolor="#e58139"] ;
703 -> 705 ;
706 [label="arrival_month <= 2.5\ngini = 0.131\nsamples = 39\nvalue = [66, 5]\nclass = não", fillcolor="#e78b48"] ;
696 -> 706 ;
707 [label="lead_time <= 107.0\ngini = 0.138\nsamples = 37\nvalue = [62, 5]\nclass = não", fillcolor="#e78b49"] ;
706 -> 707 ;
708 [label="no_of_week_nights <= 1.5\ngini = 0.126\nsamples = 30\nvalue = [55, 4]\nclass = não", fillcolor="#e78a47"] ;
707 -> 708 ;
709 [label="avg_price_per_room <= 85.5\ngini = 0.156\nsamples = 24\nvalue = [43, 4]\nclass = não", fillcolor="#e78d4b"] ;
708 -> 709 ;
710 [label="avg_price_per_room <= 80.5\ngini = 0.085\nsamples = 23\nvalue = [43, 2]\nclass = não", fillcolor="#e68742"] ;
709 -> 710 ;
711 [label="gini = 0.346\nsamples = 4\nvalue = [7, 2]\nclass = não", fillcolor="#eca572"] ;
710 -> 711 ;
712 [label="gini = 0.0\nsamples = 19\nvalue = [36, 0]\nclass = não", fillcolor="#e58139"] ;
710 -> 712 ;
713 [label="gini = 0.0\nsamples = 1\nvalue = [0, 2]\nclass = sim", fillcolor="#399de5"] ;
709 -> 713 ;
714 [label="gini = 0.0\nsamples = 6\nvalue = [12, 0]\nclass = não", fillcolor="#e58139"] ;
708 -> 714 ;
715 [label="avg_price_per_room <= 68.5\ngini = 0.219\nsamples = 7\nvalue = [7, 1]\nclass = não", fillcolor="#e99355"] ;
707 -> 715 ;
716 [label="gini = 0.0\nsamples = 1\nvalue = [0, 1]\nclass = sim", fillcolor="#399de5"] ;
715 -> 716 ;
717 [label="gini = 0.0\nsamples = 6\nvalue = [7, 0]\nclass = não", fillcolor="#e58139"] ;
715 -> 717 ;
718 [label="gini = 0.0\nsamples = 2\nvalue = [4, 0]\nclass = não", fillcolor="#e58139"] ;
706 -> 718 ;
719 [label="avg_price_per_room <= 63.0\ngini = 0.497\nsamples = 74\nvalue = [62, 72]\nclass = sim", fillcolor="#e4f1fb"] ;
695 -> 719 ;
720 [label="gini = 0.0\nsamples = 35\nvalue = [0, 63]\nclass = sim", fillcolor="#399de5"] ;
719 -> 720 ;
721 [label="avg_price_per_room <= 73.5\ngini = 0.221\nsamples = 39\nvalue = [62, 9]\nclass = não", fillcolor="#e99356"] ;
719 -> 721 ;
722 [label="arrival_month <= 1.5\ngini = 0.397\nsamples = 18\nvalue = [24, 9]\nclass = não", fillcolor="#efb083"] ;
721 -> 722 ;
723 [label="gini = 0.0\nsamples = 13\nvalue = [24, 0]\nclass = não", fillcolor="#e58139"] ;
722 -> 723 ;
724 [label="gini = 0.0\nsamples = 5\nvalue = [0, 9]\nclass = sim", fillcolor="#399de5"] ;
722 -> 724 ;
725 [label="gini = 0.0\nsamples = 21\nvalue = [38, 0]\nclass = não", fillcolor="#e58139"] ;
721 -> 725 ;
726 [label="market_segment_type <= 2.5\ngini = 0.469\nsamples = 252\nvalue = [155, 258]\nclass = sim", fillcolor="#b0d8f5"] ;
694 -> 726 ;
727 [label="gini = 0.0\nsamples = 4\nvalue = [9, 0]\nclass = não", fillcolor="#e58139"] ;
726 -> 727 ;
728 [label="lead_time <= 121.5\ngini = 0.462\nsamples = 248\nvalue = [146, 258]\nclass = sim", fillcolor="#a9d4f4"] ;
726 -> 728 ;
729 [label="arrival_day <= 9.5\ngini = 0.358\nsamples = 196\nvalue = [74, 243]\nclass = sim", fillcolor="#75bbed"] ;
728 -> 729 ;
730 [label="avg_price_per_room <= 73.75\ngini = 0.116\nsamples = 103\nvalue = [10, 152]\nclass = sim", fillcolor="#46a3e7"] ;
729 -> 730 ;
731 [label="lead_time <= 109.0\ngini = 0.494\nsamples = 6\nvalue = [5, 4]\nclass = não", fillcolor="#fae6d7"] ;
730 -> 731 ;
732 [label="gini = 0.0\nsamples = 2\nvalue = [0, 4]\nclass = sim", fillcolor="#399de5"] ;
731 -> 732 ;
733 [label="gini = 0.0\nsamples = 4\nvalue = [5, 0]\nclass = não", fillcolor="#e58139"] ;
731 -> 733 ;
734 [label="arrival_month <= 4.5\ngini = 0.063\nsamples = 97\nvalue = [5, 148]\nclass = sim", fillcolor="#40a0e6"] ;
730 -> 734 ;
735 [label="gini = 0.0\nsamples = 74\nvalue = [0, 117]\nclass = sim", fillcolor="#399de5"] ;
734 -> 735 ;
736 [label="lead_time <= 113.5\ngini = 0.239\nsamples = 23\nvalue = [5, 31]\nclass = sim", fillcolor="#59ade9"] ;
734 -> 736 ;
737 [label="arrival_month <= 8.0\ngini = 0.408\nsamples = 5\nvalue = [5, 2]\nclass = não", fillcolor="#efb388"] ;
736 -> 737 ;
738 [label="gini = 0.0\nsamples = 4\nvalue = [5, 0]\nclass = não", fillcolor="#e58139"] ;
737 -> 738 ;
739 [label="gini = 0.0\nsamples = 1\nvalue = [0, 2]\nclass = sim", fillcolor="#399de5"] ;
737 -> 739 ;
740 [label="gini = 0.0\nsamples = 18\nvalue = [0, 29]\nclass = sim", fillcolor="#399de5"] ;
736 -> 740 ;
741 [label="arrival_month <= 6.5\ngini = 0.485\nsamples = 93\nvalue = [64, 91]\nclass = sim", fillcolor="#c4e2f7"] ;
729 -> 741 ;
742 [label="arrival_month <= 5.5\ngini = 0.219\nsamples = 25\nvalue = [5, 35]\nclass = sim", fillcolor="#55abe9"] ;
741 -> 742 ;
743 [label="no_of_week_nights <= 1.5\ngini = 0.469\nsamples = 6\nvalue = [5, 3]\nclass = não", fillcolor="#f5cdb0"] ;
742 -> 743 ;
744 [label="gini = 0.0\nsamples = 2\nvalue = [2, 0]\nclass = não", fillcolor="#e58139"] ;
743 -> 744 ;
745 [label="arrival_day <= 18.0\ngini = 0.5\nsamples = 4\nvalue = [3, 3]\nclass = não", fillcolor="#ffffff"] ;
743 -> 745 ;
746 [label="gini = 0.0\nsamples = 2\nvalue = [0, 3]\nclass = sim", fillcolor="#399de5"] ;
745 -> 746 ;
747 [label="gini = 0.0\nsamples = 2\nvalue = [3, 0]\nclass = não", fillcolor="#e58139"] ;
745 -> 747 ;
748 [label="gini = 0.0\nsamples = 19\nvalue = [0, 32]\nclass = sim", fillcolor="#399de5"] ;
742 -> 748 ;
749 [label="arrival_month <= 9.5\ngini = 0.5\nsamples = 68\nvalue = [59, 56]\nclass = não", fillcolor="#fef9f5"] ;
741 -> 749 ;
750 [label="arrival_month <= 8.5\ngini = 0.229\nsamples = 23\nvalue = [33, 5]\nclass = não", fillcolor="#e99457"] ;
749 -> 750 ;
751 [label="no_of_week_nights <= 1.5\ngini = 0.188\nsamples = 13\nvalue = [17, 2]\nclass = não", fillcolor="#e89050"] ;
750 -> 751 ;
752 [label="arrival_day <= 29.0\ngini = 0.408\nsamples = 6\nvalue = [5, 2]\nclass = não", fillcolor="#efb388"] ;
751 -> 752 ;
753 [label="arrival_day <= 19.0\ngini = 0.278\nsamples = 5\nvalue = [5, 1]\nclass = não", fillcolor="#ea9a61"] ;
752 -> 753 ;
754 [label="gini = 0.0\nsamples = 3\nvalue = [3, 0]\nclass = não", fillcolor="#e58139"] ;
753 -> 754 ;
755 [label="lead_time <= 107.0\ngini = 0.444\nsamples = 2\nvalue = [2, 1]\nclass = não", fillcolor="#f2c09c"] ;
753 -> 755 ;
756 [label="gini = 0.0\nsamples = 1\nvalue = [2, 0]\nclass = não", fillcolor="#e58139"] ;
755 -> 756 ;
757 [label="gini = 0.0\nsamples = 1\nvalue = [0, 1]\nclass = sim", fillcolor="#399de5"] ;
755 -> 757 ;
758 [label="gini = 0.0\nsamples = 1\nvalue = [0, 1]\nclass = sim", fillcolor="#399de5"] ;
752 -> 758 ;
759 [label="gini = 0.0\nsamples = 7\nvalue = [12, 0]\nclass = não", fillcolor="#e58139"] ;
751 -> 759 ;
760 [label="no_of_week_nights <= 1.5\ngini = 0.266\nsamples = 10\nvalue = [16, 3]\nclass = não", fillcolor="#ea995e"] ;
750 -> 760 ;
761 [label="avg_price_per_room <= 82.875\ngini = 0.48\nsamples = 2\nvalue = [2, 3]\nclass = sim", fillcolor="#bddef6"] ;
760 -> 761 ;
762 [label="gini = 0.0\nsamples = 1\nvalue = [2, 0]\nclass = não", fillcolor="#e58139"] ;
761 -> 762 ;
763 [label="gini = 0.0\nsamples = 1\nvalue = [0, 3]\nclass = sim", fillcolor="#399de5"] ;
761 -> 763 ;
764 [label="gini = 0.0\nsamples = 8\nvalue = [14, 0]\nclass = não", fillcolor="#e58139"] ;
760 -> 764 ;
765 [label="avg_price_per_room <= 83.875\ngini = 0.447\nsamples = 45\nvalue = [26, 51]\nclass = sim", fillcolor="#9ecff2"] ;
749 -> 765 ;
766 [label="avg_price_per_room <= 70.07\ngini = 0.171\nsamples = 32\nvalue = [5, 48]\nclass = sim", fillcolor="#4ea7e8"] ;
765 -> 766 ;
767 [label="gini = 0.0\nsamples = 18\nvalue = [0, 27]\nclass = sim", fillcolor="#399de5"] ;
766 -> 767 ;
768 [label="avg_price_per_room <= 79.61\ngini = 0.311\nsamples = 14\nvalue = [5, 21]\nclass = sim", fillcolor="#68b4eb"] ;
766 -> 768 ;
769 [label="gini = 0.0\nsamples = 2\nvalue = [3, 0]\nclass = não", fillcolor="#e58139"] ;
768 -> 769 ;
770 [label="lead_time <= 109.5\ngini = 0.159\nsamples = 12\nvalue = [2, 21]\nclass = sim", fillcolor="#4ca6e7"] ;
768 -> 770 ;
771 [label="arrival_day <= 19.5\ngini = 0.087\nsamples = 11\nvalue = [1, 21]\nclass = sim", fillcolor="#42a2e6"] ;
770 -> 771 ;
772 [label="gini = 0.0\nsamples = 8\nvalue = [0, 13]\nclass = sim", fillcolor="#399de5"] ;
771 -> 772 ;
773 [label="arrival_day <= 26.5\ngini = 0.198\nsamples = 3\nvalue = [1, 8]\nclass = sim", fillcolor="#52a9e8"] ;
771 -> 773 ;
774 [label="gini = 0.0\nsamples = 1\nvalue = [1, 0]\nclass = não", fillcolor="#e58139"] ;
773 -> 774 ;
775 [label="gini = 0.0\nsamples = 2\nvalue = [0, 8]\nclass = sim", fillcolor="#399de5"] ;
773 -> 775 ;
776 [label="gini = 0.0\nsamples = 1\nvalue = [1, 0]\nclass = não", fillcolor="#e58139"] ;
770 -> 776 ;
777 [label="lead_time <= 97.0\ngini = 0.219\nsamples = 13\nvalue = [21, 3]\nclass = não", fillcolor="#e99355"] ;
765 -> 777 ;
778 [label="gini = 0.0\nsamples = 6\nvalue = [11, 0]\nclass = não", fillcolor="#e58139"] ;
777 -> 778 ;
779 [label="gini = 0.355\nsamples = 7\nvalue = [10, 3]\nclass = não", fillcolor="#eda774"] ;
777 -> 779 ;
780 [label="arrival_day <= 3.5\ngini = 0.285\nsamples = 52\nvalue = [72, 15]\nclass = não", fillcolor="#ea9b62"] ;
728 -> 780 ;
781 [label="lead_time <= 136.0\ngini = 0.5\nsamples = 6\nvalue = [9, 9]\nclass = não", fillcolor="#ffffff"] ;
780 -> 781 ;
782 [label="gini = 0.0\nsamples = 3\nvalue = [9, 0]\nclass = não", fillcolor="#e58139"] ;
781 -> 782 ;
783 [label="gini = 0.0\nsamples = 3\nvalue = [0, 9]\nclass = sim", fillcolor="#399de5"] ;
781 -> 783 ;
784 [label="lead_time <= 123.0\ngini = 0.159\nsamples = 46\nvalue = [63, 6]\nclass = não", fillcolor="#e78d4c"] ;
780 -> 784 ;
785 [label="avg_price_per_room <= 62.75\ngini = 0.34\nsamples = 13\nvalue = [18, 5]\nclass = não", fillcolor="#eca470"] ;
784 -> 785 ;
786 [label="gini = 0.0\nsamples = 1\nvalue = [4, 0]\nclass = não", fillcolor="#e58139"] ;
785 -> 786 ;
787 [label="gini = 0.388\nsamples = 12\nvalue = [14, 5]\nclass = não", fillcolor="#eeae80"] ;
785 -> 787 ;
788 [label="avg_price_per_room <= 89.88\ngini = 0.043\nsamples = 33\nvalue = [45, 1]\nclass = não", fillcolor="#e6843d"] ;
784 -> 788 ;
789 [label="gini = 0.0\nsamples = 21\nvalue = [29, 0]\nclass = não", fillcolor="#e58139"] ;
788 -> 789 ;
790 [label="arrival_day <= 17.0\ngini = 0.111\nsamples = 12\nvalue = [16, 1]\nclass = não", fillcolor="#e78945"] ;
788 -> 790 ;
791 [label="gini = 0.219\nsamples = 7\nvalue = [7, 1]\nclass = não", fillcolor="#e99355"] ;
790 -> 791 ;
792 [label="gini = 0.0\nsamples = 5\nvalue = [9, 0]\nclass = não", fillcolor="#e58139"] ;
790 -> 792 ;
793 [label="arrival_day <= 29.5\ngini = 0.283\nsamples = 137\nvalue = [180, 37]\nclass = não", fillcolor="#ea9b62"] ;
693 -> 793 ;
794 [label="avg_price_per_room <= 79.645\ngini = 0.237\nsamples = 131\nvalue = [176, 28]\nclass = não", fillcolor="#e99558"] ;
793 -> 794 ;
795 [label="arrival_day <= 23.5\ngini = 0.328\nsamples = 73\nvalue = [92, 24]\nclass = não", fillcolor="#eca26d"] ;
794 -> 795 ;
796 [label="no_of_week_nights <= 7.0\ngini = 0.242\nsamples = 52\nvalue = [73, 12]\nclass = não", fillcolor="#e9965a"] ;
795 -> 796 ;
797 [label="arrival_month <= 10.5\ngini = 0.212\nsamples = 50\nvalue = [73, 10]\nclass = não", fillcolor="#e99254"] ;
796 -> 797 ;
798 [label="lead_time <= 145.5\ngini = 0.1\nsamples = 46\nvalue = [72, 4]\nclass = não", fillcolor="#e68844"] ;
797 -> 798 ;
799 [label="lead_time <= 144.5\ngini = 0.126\nsamples = 37\nvalue = [55, 4]\nclass = não", fillcolor="#e78a47"] ;
798 -> 799 ;
800 [label="avg_price_per_room <= 71.125\ngini = 0.098\nsamples = 36\nvalue = [55, 3]\nclass = não", fillcolor="#e68844"] ;
799 -> 800 ;
801 [label="gini = 0.0\nsamples = 21\nvalue = [32, 0]\nclass = não", fillcolor="#e58139"] ;
800 -> 801 ;
802 [label="arrival_month <= 6.5\ngini = 0.204\nsamples = 15\nvalue = [23, 3]\nclass = não", fillcolor="#e89153"] ;
800 -> 802 ;
803 [label="gini = 0.0\nsamples = 3\nvalue = [7, 0]\nclass = não", fillcolor="#e58139"] ;
802 -> 803 ;
804 [label="avg_price_per_room <= 73.625\ngini = 0.266\nsamples = 12\nvalue = [16, 3]\nclass = não", fillcolor="#ea995e"] ;
802 -> 804 ;
805 [label="lead_time <= 116.5\ngini = 0.219\nsamples = 6\nvalue = [7, 1]\nclass = não", fillcolor="#e99355"] ;
804 -> 805 ;
806 [label="gini = 0.0\nsamples = 3\nvalue = [5, 0]\nclass = não", fillcolor="#e58139"] ;
805 -> 806 ;
807 [label="no_of_week_nights <= 4.5\ngini = 0.444\nsamples = 3\nvalue = [2, 1]\nclass = não", fillcolor="#f2c09c"] ;
805 -> 807 ;
808 [label="gini = 0.0\nsamples = 1\nvalue = [0, 1]\nclass = sim", fillcolor="#399de5"] ;
807 -> 808 ;
809 [label="gini = 0.0\nsamples = 2\nvalue = [2, 0]\nclass = não", fillcolor="#e58139"] ;
807 -> 809 ;
810 [label="gini = 0.298\nsamples = 6\nvalue = [9, 2]\nclass = não", fillcolor="#eb9d65"] ;
804 -> 810 ;
811 [label="gini = 0.0\nsamples = 1\nvalue = [0, 1]\nclass = sim", fillcolor="#399de5"] ;
799 -> 811 ;
812 [label="gini = 0.0\nsamples = 9\nvalue = [17, 0]\nclass = não", fillcolor="#e58139"] ;
798 -> 812 ;
813 [label="no_of_week_nights <= 4.5\ngini = 0.245\nsamples = 4\nvalue = [1, 6]\nclass = sim", fillcolor="#5aade9"] ;
797 -> 813 ;
814 [label="lead_time <= 130.0\ngini = 0.32\nsamples = 3\nvalue = [1, 4]\nclass = sim", fillcolor="#6ab6ec"] ;
813 -> 814 ;
815 [label="avg_price_per_room <= 65.25\ngini = 0.5\nsamples = 2\nvalue = [1, 1]\nclass = não", fillcolor="#ffffff"] ;
814 -> 815 ;
816 [label="gini = 0.0\nsamples = 1\nvalue = [1, 0]\nclass = não", fillcolor="#e58139"] ;
815 -> 816 ;
817 [label="gini = 0.0\nsamples = 1\nvalue = [0, 1]\nclass = sim", fillcolor="#399de5"] ;
815 -> 817 ;
818 [label="gini = 0.0\nsamples = 1\nvalue = [0, 3]\nclass = sim", fillcolor="#399de5"] ;
814 -> 818 ;
819 [label="gini = 0.0\nsamples = 1\nvalue = [0, 2]\nclass = sim", fillcolor="#399de5"] ;
813 -> 819 ;
820 [label="gini = 0.0\nsamples = 2\nvalue = [0, 2]\nclass = sim", fillcolor="#399de5"] ;
796 -> 820 ;
821 [label="arrival_month <= 7.5\ngini = 0.475\nsamples = 21\nvalue = [19, 12]\nclass = não", fillcolor="#f5d1b6"] ;
795 -> 821 ;
822 [label="arrival_day <= 26.5\ngini = 0.365\nsamples = 18\nvalue = [19, 6]\nclass = não", fillcolor="#eda978"] ;
821 -> 822 ;
823 [label="no_of_week_nights <= 7.5\ngini = 0.219\nsamples = 6\nvalue = [7, 1]\nclass = não", fillcolor="#e99355"] ;
822 -> 823 ;
824 [label="gini = 0.0\nsamples = 5\nvalue = [7, 0]\nclass = não", fillcolor="#e58139"] ;
823 -> 824 ;
825 [label="gini = 0.0\nsamples = 1\nvalue = [0, 1]\nclass = sim", fillcolor="#399de5"] ;
823 -> 825 ;
826 [label="avg_price_per_room <= 69.875\ngini = 0.415\nsamples = 12\nvalue = [12, 5]\nclass = não", fillcolor="#f0b58b"] ;
822 -> 826 ;
827 [label="gini = 0.0\nsamples = 5\nvalue = [0, 5]\nclass = sim", fillcolor="#399de5"] ;
826 -> 827 ;
828 [label="gini = 0.0\nsamples = 7\nvalue = [12, 0]\nclass = não", fillcolor="#e58139"] ;
826 -> 828 ;
829 [label="gini = 0.0\nsamples = 3\nvalue = [0, 6]\nclass = sim", fillcolor="#399de5"] ;
821 -> 829 ;
830 [label="avg_price_per_room <= 84.5\ngini = 0.087\nsamples = 58\nvalue = [84, 4]\nclass = não", fillcolor="#e68742"] ;
794 -> 830 ;
831 [label="arrival_day <= 27.5\ngini = 0.035\nsamples = 35\nvalue = [55, 1]\nclass = não", fillcolor="#e5833d"] ;
830 -> 831 ;
832 [label="gini = 0.0\nsamples = 32\nvalue = [52, 0]\nclass = não", fillcolor="#e58139"] ;
831 -> 832 ;
833 [label="arrival_month <= 4.5\ngini = 0.375\nsamples = 3\nvalue = [3, 1]\nclass = não", fillcolor="#eeab7b"] ;
831 -> 833 ;
834 [label="gini = 0.444\nsamples = 2\nvalue = [2, 1]\nclass = não", fillcolor="#f2c09c"] ;
833 -> 834 ;
835 [label="gini = 0.0\nsamples = 1\nvalue = [1, 0]\nclass = não", fillcolor="#e58139"] ;
833 -> 835 ;
836 [label="arrival_day <= 5.0\ngini = 0.17\nsamples = 23\nvalue = [29, 3]\nclass = não", fillcolor="#e88e4d"] ;
830 -> 836 ;
837 [label="gini = 0.0\nsamples = 1\nvalue = [0, 1]\nclass = sim", fillcolor="#399de5"] ;
836 -> 837 ;
838 [label="avg_price_per_room <= 85.68\ngini = 0.121\nsamples = 22\nvalue = [29, 2]\nclass = não", fillcolor="#e78a47"] ;
836 -> 838 ;
839 [label="arrival_day <= 19.0\ngini = 0.5\nsamples = 2\nvalue = [1, 1]\nclass = não", fillcolor="#ffffff"] ;
838 -> 839 ;
840 [label="gini = 0.0\nsamples = 1\nvalue = [1, 0]\nclass = não", fillcolor="#e58139"] ;
839 -> 840 ;
841 [label="gini = 0.0\nsamples = 1\nvalue = [0, 1]\nclass = sim", fillcolor="#399de5"] ;
839 -> 841 ;
842 [label="no_of_week_nights <= 3.5\ngini = 0.067\nsamples = 20\nvalue = [28, 1]\nclass = não", fillcolor="#e68640"] ;
838 -> 842 ;
843 [label="arrival_month <= 4.5\ngini = 0.087\nsamples = 14\nvalue = [21, 1]\nclass = não", fillcolor="#e68742"] ;
842 -> 843 ;
844 [label="arrival_day <= 17.5\ngini = 0.111\nsamples = 10\nvalue = [16, 1]\nclass = não", fillcolor="#e78945"] ;
843 -> 844 ;
845 [label="gini = 0.0\nsamples = 1\nvalue = [2, 0]\nclass = não", fillcolor="#e58139"] ;
844 -> 845 ;
846 [label="gini = 0.124\nsamples = 9\nvalue = [14, 1]\nclass = não", fillcolor="#e78a47"] ;
844 -> 846 ;
847 [label="gini = 0.0\nsamples = 4\nvalue = [5, 0]\nclass = não", fillcolor="#e58139"] ;
843 -> 847 ;
848 [label="gini = 0.0\nsamples = 6\nvalue = [7, 0]\nclass = não", fillcolor="#e58139"] ;
842 -> 848 ;
849 [label="lead_time <= 113.5\ngini = 0.426\nsamples = 6\nvalue = [4, 9]\nclass = sim", fillcolor="#91c9f1"] ;
793 -> 849 ;
850 [label="gini = 0.0\nsamples = 4\nvalue = [0, 9]\nclass = sim", fillcolor="#399de5"] ;
849 -> 850 ;
851 [label="gini = 0.0\nsamples = 2\nvalue = [4, 0]\nclass = não", fillcolor="#e58139"] ;
849 -> 851 ;
852 [label="lead_time <= 113.5\ngini = 0.467\nsamples = 463\nvalue = [289, 488]\nclass = sim", fillcolor="#aed7f4"] ;
692 -> 852 ;
853 [label="lead_time <= 112.5\ngini = 0.389\nsamples = 287\nvalue = [127, 354]\nclass = sim", fillcolor="#80c0ee"] ;
852 -> 853 ;
854 [label="lead_time <= 105.5\ngini = 0.419\nsamples = 255\nvalue = [127, 298]\nclass = sim", fillcolor="#8dc7f0"] ;
853 -> 854 ;
